tree
version=v4
num_class=3
num_tree_per_iteration=3
label_index=0
max_feature_idx=10
objective=multiclass num_class:3
feature_names=return volatility ema_5 ema_13 rsi bb_upper bb_lower bb_width macd_hist atr volume_delta
feature_infos=[-0.035157727324652166:0.030115664564870137] [0.00022879456052882064:0.016847588518058027] [75204.3519263942:111717.63366690383] [75646.916743770576:111564.5121528606] [2.9996921957634157:99.365904840107589] [76926.69095377397:112555.77397147979] [74207.00446058283:110993.93387274885] [169.10647683060961:13881.613712668273] [-558.718435628517:835.57651325239272] [41.021428571427741:2105.1499999999983] [-112869464.85149972:135285078.98000029]
tree_sizes=2902 3357 3015 3178 3404 3170 3288 3288 2876 3093 3409 2875 3200 3409 2769 3294 3423 3184 3080 3101 3395 2651 3310 3193 2779 3424 2563 2667 3117 3398 2979 3428 2989 2770 2986 3100 2891 3106 2969 2863 2990 3090 2883 3401 3100 3080 3316 2986 2858 3303 3309 3297 2871 3095 2450 2686 3200 2559 3109 3400 2149 3002 2773 2045 2790 2691 2586 2988 3409 2384 3227 3199 2027 2359 2784 2273 2568 2772 2477 2862 2990 2045 2876 2349 3008 2672 2776 1741 2262 2028 2044 2767 2347 2049 2672 3212 2998 2887 1929 1731 2358 1415 2763 2474 2144 1622 1617 2348 2465 2992 1731 2887 2566 1614 1854 3095 1415 1722 1730 1943 2783 2899 2653 1720 3295 2898 2973 3114 1421 1412 2153 1816 3302 2991 2372 2364 2259 1425 1738 2996 2491 3096 2457 1424 1411 2256 1815 1612 2687 1509 3210 3189 2993 2478 2460 2470 1643 2261 1723 1837 2345 3314 2439 2481 1838 2048 2569 2687 2788 1849 1411 3096 1614 2267 3201 1630 1924 1617 2577 1638 1727 2160 1517 3105 2671 2250 1841 1614 3191 1836 2063 2474 2687 2036 1865 3005 2042 1518 3019 3097 3009 2560 2690 2470 2995 2152 2236 3019 2249 2462 1409 1622 2461 1619 2784 2039 3023 2041 2149 2810 2255 1856 2899 2899 3303 2777 1626 2686 2132 2683 2460 2368 2389 2682 2392 2364 3315 2587 2895 2250 2997 3315 1627 2892 1628 1710 1414 2988 1414 1949 2681 2472 1733 3113 3100 2480 2480 2500 2771 2558 3189 2586 2465 1853 2763 3011 1421 2484 2256 2879 2371 3311 2167 1510 3086 2551 2781 1621 2904 3008 2768 1854 2347 2563 1422 1413 1625 2034 2289 2574 2272 3093 1849 2352 2470 3309 2784 2055 2997 2673

Tree=0
num_leaves=27
num_cat=0
split_feature=9 9 7 2 8 4 9 10 8 0 5 7 5 7 2 5 7 10 9 9 6 8 1 4 2 9
split_gain=378.672 56.8063 36.8929 17.1376 16.9075 16.7172 18.558 13.4164 14.723 10.3467 9.63056 10.3063 12.2733 9.4234 9.05721 8.66976 8.52367 7.0892 7.39711 7.03828 5.97566 5.69414 13.4913 6.37151 4.27023 4.27022
threshold=332.63571428571396 210.2785714285726 1823.6681265317022 77682.24721783954 -90.573315454646874 31.002319778999311 512.36428571428519 971622.92450002453 -156.8650255565465 -0.0083036188052550957 96720.276791998142 1209.2882007457958 98773.016135331505 4983.0600679056524 108082.68931202292 80381.891047422789 368.23872450471396 290039.86735000915 263.18928571428688 481.07142857142918 86690.040680838851 -41.494737762289539 0.001404959873260157 18.094119384586538 105759.61452018733 147.37499999999901
decision_type=2 2 2 2 2 2 2 2 2 2 2 2 2 2 2 2 2 2 2 2 2 2 2 2 2 2
left_child=1 16 3 -2 5 13 -7 8 -5 -6 17 14 -13 -4 -12 -11 24 20 -19 -9 -3 22 -18 -23 25 -1
right_child=2 10 4 7 9 6 -8 19 -10 15 11 12 -14 -15 -16 -17 21 18 -20 -21 -22 23 -24 -25 -26 -27
leaf_value=-1.8160524835900631 -1.5500590099199212 -1.7587472354136602 -1.6988324817798306 -1.6112798375517798 -1.5868914803473393 -1.6980834467862251 -1.5979412214755648 -1.6968251293271335 -1.7290399893336528 -1.6482175436089905 -1.7775838218072288 -1.7883146089250785 -1.7305620982724412 -1.6299135910538549 -1.7356456392408062 -1.701413042825185 -1.7763156139740615 -1.6793837330947623 -1.7407502664359831 -1.6162316314797394 -1.7383575562692222 -1.6759208231518987 -1.6835988856469368 -1.7847762944195227 -1.7082413159519583 -1.7705532647763458
leaf_weight=131.24799683690071 5.8476830273866645 303.42977486550808 108.94016899168491 10.829042643308638 8.4466532617807371 27.072606608271599 58.476830273866653 39.417715221643448 542.10187472403049 32.487127929925919 355.84234125912189 48.080949336290359 156.8045374751091 24.257055521011353 60.209477096796036 538.20341937243938 84.466532617807388 31.187642812728882 53.062308952212334 14.944078847765921 273.10845546424389 5.4145213216543189 19.275695905089378 776.44235752522945 4.3316170573234549 24.473636373877525
leaf_count=606 27 1401 503 50 39 125 270 182 2503 150 1643 222 724 112 278 2485 390 144 245 69 1261 25 89 3585 20 113
internal_value=-1.74286 -1.76764 -1.70199 -1.72043 -1.68781 -1.66413 -1.62963 -1.72207 -1.72673 -1.69676 -1.75353 -1.76247 -1.74412 -1.68628 -1.77151 -1.69838 -1.78494 -1.74513 -1.71803 -1.67467 -1.74909 -1.7811 -1.75909 -1.78402 -1.80618 -1.8089
internal_weight=3738.4 2327.38 1411.02 613.14 797.884 218.747 85.5494 607.293 552.931 579.137 1281.73 620.937 204.885 133.197 416.052 570.691 1045.65 660.788 84.25 54.3618 576.538 885.599 103.742 781.857 160.053 155.722
internal_count=17261 10746 6515 2831 3684 1010 395 2804 2553 2674 5918 2867 946 615 1921 2635 4828 3051 389 251 2662 4089 479 3610 739 719
is_linear=0
shrinkage=1


Tree=1
num_leaves=31
num_cat=0
split_feature=9 9 9 10 10 2 1 6 6 8 3 4 2 9 5 9 1 8 9 3 8 7 1 0 3 9 6 4 4 10
split_gain=868.291 213.667 114.478 35.0303 34.9909 28.9005 26.8222 24.3142 21.29 16.9281 15.973 15.5848 13.1715 12.926 10.5504 11.8162 10.4788 8.9892 10.0744 8.98643 8.91765 8.78332 8.47279 8.40378 7.15771 6.12525 5.7755 5.29732 2.2385 1.53936
threshold=341.39285714285563 208.91071428571536 568.30357142857099 -159595.4013000064 353980.39574998448 83648.172782039284 0.0010773227915088889 107073.54082779701 101506.26736937092 78.4403821812259 83881.690091613244 36.211512565727787 96002.156115514474 468.22857142857026 83823.624296648413 675.14642857142883 0.0021766575124126035 83.537056832563891 439.86428571428672 79354.13150443077 -115.8575059771815 1756.6999720151509 0.0019062794520818892 0.0013165185185505248 98290.976631847341 163.98571428571557 82442.693325139218 52.539484439565783 56.643913588215341 1050031.0371500088
decision_type=2 2 2 2 2 2 2 2 2 2 2 2 2 2 2 2 2 2 2 2 2 2 2 2 2 2 2 2 2 2
left_child=1 6 5 12 8 17 10 11 -5 14 27 -7 20 -9 28 -16 -14 26 -19 29 -3 -21 25 -6 -12 -8 -2 -1 -4 -11
right_child=2 3 9 4 23 7 22 13 -10 19 24 -13 16 -15 15 -17 -18 18 -20 21 -22 -23 -24 -25 -26 -27 -28 -29 -30 -31
leaf_value=-0.49820657786998906 -0.51656668215076584 -0.56806093445844397 -0.57040405753059331 -0.42939130202847287 -0.56501232759174513 -0.49734842794096817 -0.38140985670906286 -0.39473363538161887 -0.40367409589431108 -0.54233583950211239 -0.36606202512434732 -0.47019592625923962 -0.43069822146944026 -0.49502139494378594 -0.51095992416064795 -0.5487163108769203 -0.48983409703539804 -0.42067012492355865 -0.5204001105170819 -0.60175397918001083 -0.47134538644159901 -0.49157055420756757 -0.47919348594126887 -0.46010688979117476 -0.38436986899680203 -0.40419897347234424 -0.5671952806567887 -0.40326757710187006 -0.62816204125907671 -0.59464411631256997
leaf_weight=13.081404626369478 117.38839414715767 9.9831772148609144 58.866320818662643 1030.3327380716801 7.9176922738552085 266.79180487990379 153.19013312458992 57.83357834815979 468.17658662796021 15.146889567375185 605.87558269500732 1017.9398284256458 175.22197249531746 16.523879528045654 139.07598602771759 205.17150413990021 36.145986467599869 19.277859449386597 21.343344390392303 7.5734447836875907 211.71220645308495 161.79632037878036 13.425652116537092 214.81043386459351 329.78909558057785 512.5845128595829 27.884046703577042 10.67167219519615 7.5734447836875907 8.950434744358061
leaf_count=38 341 29 171 2993 23 775 445 168 1360 44 1760 2957 509 48 404 596 105 56 62 22 615 470 39 624 958 1489 81 31 22 26
internal_value=-0.441324 -0.41255 -0.492107 -0.43325 -0.426853 -0.477675 -0.385335 -0.472617 -0.421357 -0.529015 -0.374571 -0.475835 -0.458672 -0.41702 -0.540504 -0.533463 -0.440811 -0.514656 -0.473071 -0.504627 -0.475701 -0.496497 -0.400541 -0.463836 -0.372515 -0.398955 -0.526284 -0.455553 -0.576988 -0.561765
internal_weight=5942.06 3792.92 2149.14 2154.3 1721.24 1544.98 1638.62 1359.09 1498.51 604.154 959.418 1284.73 433.063 74.3575 410.687 344.247 211.368 185.894 40.6212 193.467 221.695 169.37 679.2 222.728 935.665 665.775 145.272 23.7531 66.4398 24.0973
internal_count=17261 11018 6243 6258 5000 4488 4760 3948 4353 1755 2787 3732 1258 216 1193 1000 614 540 118 562 644 492 1973 647 2718 1934 422 69 193 70
is_linear=0
shrinkage=1


Tree=2
num_leaves=28
num_cat=0
split_feature=1 9 9 5 5 3 5 1 6 7 1 9 5 4 1 8 7 9 2 5 10 0 7 6 10 10 9
split_gain=330.101 101.453 73.2063 36.9708 24.3189 21.0011 19.2868 22.5079 18.6788 17.8969 18.6464 17.293 16.6164 15.5587 15.688 14.2817 13.7485 12.2394 13.6095 11.5751 11.4259 10.2669 9.09863 8.99737 8.01942 6.38938 3.93818
threshold=0.0020929454162302769 202.08214285714402 576.63214285714389 83142.21292616798 104627.63671986543 103785.87386102868 102027.29959086278 0.0029836092686967015 81640.463234023395 1823.6681265317022 0.0041391929516563864 503.05357142857252 83020.997599074544 27.941669208728666 0.0069054043274631577 11.068288481184691 4326.7276541627953 165.44642857142912 84133.953557192755 82379.053524947274 -642422.66934999253 -0.0020962811943844857 1198.8675563172294 108405.99213069679 -424153.62200000032 370653.34629998083 283.18214285714208
decision_type=2 2 2 2 2 2 2 2 2 2 2 2 2 2 2 2 2 2 2 2 2 2 2 2 2 2 2
left_child=1 12 5 9 8 6 7 -2 19 -4 -11 -8 -1 16 -15 -10 -5 25 -19 -3 21 -7 -22 24 -6 -14 -25
right_child=2 4 3 13 23 20 11 -9 15 10 -12 -13 17 14 -16 -17 -18 18 -20 -21 22 -23 -24 26 -26 -27 -28
leaf_value=-1.5983933156417633 -1.6925136678097956 -1.6769019612854035 -1.3771277238975794 -1.51490521824469 -1.6662103381816791 -1.6786616867613282 -1.6134882643272288 -1.6585605893992523 -1.6946024909465542 -1.6804078758874381 -1.5387973522998564 -1.7257773302991566 -1.7651339291022468 -1.6640280474416465 -1.601311382505362 -1.7192245010879543 -1.6279833979013405 -1.6896752325567268 -1.7474711669432725 -1.5545216896924854 -1.6810190420815765 -1.5174302241171869 -1.7332584122017674 -1.7819707783930456 -1.7295909408774284 -1.6668264049065837 -1.7361963797626394
leaf_weight=6.9167321324348441 510.49945545196533 19.188353657722473 5.1317690014839163 15.841547787189482 21.642677962779999 34.360540270805359 80.992702066898346 316.16159456968307 551.55360746383667 12.271621525287626 38.376707315444946 16.510908961296082 537.49702280759811 221.55854862928391 48.640245318412781 411.21088129281998 33.468058705329895 45.516559839248657 388.45260137319565 12.940982699394224 44.624078273773193 4.4624078273773184 131.86415129899979 45.739680230617523 257.25781124830246 6.6936117410659781 31.906215965747833
leaf_count=31 2288 86 23 71 97 154 363 1417 2472 55 172 74 2409 993 218 1843 150 204 1741 58 200 20 591 205 1153 30 143
internal_value=-1.70486 -1.72844 -1.6685 -1.6302 -1.71065 -1.68112 -1.67457 -1.67953 -1.70262 -1.55508 -1.57311 -1.6325 -1.75284 -1.64331 -1.65274 -1.70512 -1.59166 -1.75394 -1.74141 -1.62761 -1.70925 -1.66013 -1.72005 -1.73305 -1.72467 -1.76392 -1.76316
internal_weight=3851.28 2336.52 1514.76 375.288 1351.44 1139.48 924.165 826.661 994.894 55.7801 50.6483 97.5036 985.077 319.508 270.199 962.764 49.3096 978.16 433.969 32.1293 215.311 38.8229 176.488 356.546 278.9 544.191 77.6459
internal_count=17261 10472 6789 1682 6057 5107 4142 3705 4459 250 227 437 4415 1432 1211 4315 221 4384 1945 144 965 174 791 1598 1250 2439 348
is_linear=0
shrinkage=1


Tree=3
num_leaves=29
num_cat=0
split_feature=9 9 7 2 8 4 9 10 8 1 0 1 7 2 5 7 5 2 7 6 3 8 1 4 9 9 4 2
split_gain=290.55 48.0803 26.6274 12.0474 11.6669 11.8171 11.8649 10.552 11.2557 8.6524 13.007 11.9407 8.15957 7.95707 7.94445 9.22637 9.76911 7.79177 6.35255 7.84212 5.4103 5.3263 11.5864 5.73912 4.7668 4.17378 6.25559 1.9254
threshold=332.63571428571396 210.2785714285726 1823.6681265317022 77682.24721783954 -90.573315454646874 31.002319778999311 512.36428571428519 971622.92450002453 -156.8650255565465 0.0078569665271946386 -0.0083036188052550957 0.01022947992619686 368.23872450471396 81649.836860527837 96720.276791998142 1169.9697868172227 98773.016135331505 108082.68931202292 1591.7042004562975 86690.040680838851 86425.202152103899 -41.494737762289539 0.001404959873260157 18.094119384586538 481.07142857142918 141.61428571428408 45.578916310294694 105389.75309772884
decision_type=2 2 2 2 2 2 2 2 2 2 2 2 2 2 2 2 2 2 2 2 2 2 2 2 2 2 2 2
left_child=1 12 3 -2 5 13 -7 8 -5 10 -6 -11 25 -4 18 17 -17 -16 19 -3 -20 22 -14 -23 -9 27 -27 -1
right_child=2 14 4 7 9 6 -8 24 -10 11 -12 -13 21 -15 15 16 -18 -19 20 -21 -22 23 -24 -25 -26 26 -28 -29
leaf_value=-0.072109175629709046 0.15154242148906416 -0.016359232944614454 0.10462519085899719 0.10936066712040567 0.17324453636065074 0.038149173447902779 0.11548278191654884 0.039943397689738085 0.011243299004684291 -0.061111451083739145 0.039670131646198287 0.076616520227201834 -0.030441213164204617 0.036986953857709164 -0.03346420281031811 -0.040617886305583009 0.0092610539868824126 0.0061494971186697523 0.056197169763697929 0.0065943922891898051 -0.0022867165538914261 0.063318183546457338 0.054898667714178041 -0.038919129933214419 0.103453645513641 0.050476286964027076 -0.05381421736813035 -0.014632956750272539
leaf_weight=112.29442225396633 6.7742716372013083 308.01662380993366 20.295999959111214 11.943703189492224 7.3839807063341132 28.331348776817322 66.189304009079933 41.083035990595818 554.2533448189497 18.893612518906593 573.1444321423769 9.4400076270103472 80.863194644451141 121.58923314511776 323.5480415225029 50.584777489304543 175.49076169729233 58.6543198376894 32.851799413561821 288.02883818745613 30.506642937660217 5.5317855626344672 19.805559635162354 738.89682373404503 16.590193867683411 7.669421166181567 22.998779430985451 6.1474130451679221
leaf_count=561 27 1434 87 50 30 125 270 182 2503 82 2521 41 390 528 1543 241 812 271 152 1325 140 25 89 3585 69 37 111 30
internal_value=-6.06702e-05 -0.0225821 0.0344543 0.018904 0.0460562 0.0649105 0.092303 0.0174638 0.013313 0.0387355 0.0413691 -0.0152242 -0.0390454 0.0466623 -0.0096705 -0.0179129 -0.00189944 -0.0273849 -0.0020672 -0.00526728 0.0280376 -0.03524 -0.0136515 -0.0381594 0.0582127 -0.0606126 -0.0277335 -0.069126
internal_weight=3737.8 2261.89 1475.91 630.645 845.268 236.406 94.5207 623.87 566.197 608.862 580.528 28.3336 994.207 141.885 1267.68 608.278 226.076 382.202 659.404 596.045 63.3584 845.097 100.669 744.429 57.6732 149.11 30.6682 118.442
internal_count=17261 10746 6515 2831 3684 1010 395 2804 2553 2674 2551 123 4828 615 5918 2867 1053 1814 3051 2759 292 4089 479 3610 251 739 148 591
is_linear=0
shrinkage=0.1


Tree=4
num_leaves=31
num_cat=0
split_feature=9 9 9 6 6 1 2 8 1 3 8 4 9 10 10 1 0 9 6 3 7 3 1 2 7 0 4 2 3 1
split_gain=669.972 177.309 79.5391 28.1161 23.8388 23.6127 19.1377 16.992 15.6643 14.6323 12.5016 12.171 11.598 10.9057 10.5826 8.45977 8.38943 8.24362 8.2346 7.14168 6.57358 6.71707 6.14814 6.13024 5.9137 5.77994 4.7007 3.78289 3.52787 2.88114
threshold=343.24642857142891 211.69285714285903 568.30357142857099 93896.559960791958 107073.54082779701 0.0010773227915088889 83471.45658780307 -115.8575059771815 0.0027165188600829812 83881.690091613244 78.4403821812259 36.211512565727787 468.22857142857026 -159595.4013000064 -263508.74819999532 0.0019062794520818892 -0.0044965739195662593 661.6464285714294 82442.693325139218 98290.976631847341 1756.6999720151509 79354.13150443077 0.0019277369839503867 93217.964335767043 1937.008167182212 -0.00076638884806978769 52.539484439565783 97824.19770374526 94003.340290685752 0.0085193779090617199
decision_type=2 2 2 2 2 2 2 2 2 2 2 2 2 2 2 2 2 2 2 2 2 2 2 2 2 2 2 2 2 2
left_child=1 5 4 7 6 9 18 25 14 26 16 -8 22 -9 -5 23 29 -18 -2 -11 -12 -22 -6 -7 -14 -3 -1 -10 -17 -4
right_child=2 3 10 8 12 15 11 13 27 19 20 -13 24 -15 -16 28 17 -19 -20 -21 21 -23 -24 -25 -26 -27 -28 -29 -30 -31
leaf_value=-0.053843805149594019 -0.057788098606241511 -0.14246165013525006 -0.12005695353704288 -0.0061564142105554158 0.0019503137329856431 0.026320244693728623 -0.049222511988279961 -0.026836778965841329 -0.078051521925293466 0.069482288546047544 -0.14047717099856702 -0.025470942435399851 0.010775206205485523 0.00091000738058682324 0.021627963545416767 -0.082645140349009188 -0.059188816031422745 -0.090207455413388205 -0.12537011661547234 0.050974029081510303 -0.097886175819920318 -0.042355012502287522 0.071288495103524335 0.045718346581199554 -0.10784470115480614 -0.039808072819787488 0.034870240442738468 -0.011240610034664247 0.012468637239653409 -0.053721168927588304
leaf_weight=13.873920798301699 155.0600862801075 11.617697298526766 69.137753307819366 157.3799609541893 20.01437783241272 265.85784223675728 273.14039570093155 179.93458384275436 20.186093986034393 584.45034843683243 8.3125602602958661 1026.7329971194267 8.4008445143699664 665.81703507900238 1063.0604091882706 7.994072347879408 147.46130567789078 204.49533966183662 20.401511609554291 324.0903314948082 25.070126682519913 166.10080167651176 35.417191386222839 420.73504054546356 8.4105665385723096 10.390627622604368 10.487879782915114 14.60749641060829 7.6137946844100952 7.2323116660118094
leaf_count=40 438 33 192 457 59 789 775 518 58 1767 23 2939 24 1937 3115 23 413 568 57 972 69 470 104 1252 24 30 31 42 22 20
internal_value=8.72717e-05 0.025653 -0.0440788 0.00659046 -0.0318999 0.0504035 -0.0346463 -0.00725048 0.0161589 0.0608293 -0.0741004 -0.0304618 0.0241872 -0.00499315 0.0180451 0.0365522 -0.0837306 -0.0772114 -0.0656461 0.0628801 -0.0534227 -0.0496374 0.0462529 0.0382071 -0.048569 -0.0939966 -0.015652 -0.0500021 -0.036247 -0.113775
internal_weight=5933.49 3758.1 2175.39 2122.99 1547.58 1635.1 1475.33 867.76 1255.23 932.902 627.81 1299.87 72.243 845.752 1220.44 702.201 428.327 351.957 175.462 908.541 199.483 191.171 55.4316 686.593 16.8114 22.0083 24.3618 34.7936 15.6079 76.3701
internal_count=17261 11086 6175 6190 4420 4896 4209 2518 3672 2810 1755 3714 211 2455 3572 2086 1193 981 495 2739 562 539 163 2041 48 63 71 100 45 212
is_linear=0
shrinkage=0.1


Tree=5
num_leaves=29
num_cat=0
split_feature=9 1 2 6 2 2 1 8 9 1 5 7 6 6 9 2 4 7 3 3 6 9 5 2 1 0 2 9
split_gain=262.475 107.314 30.5377 25.6338 25.3135 24.2909 22.7874 21.8002 21.3514 19.8754 18.23 14.9543 13.2707 10.9081 10.9001 9.94985 9.58915 14.1068 8.54815 5.61943 4.70919 8.38674 3.86163 3.80044 3.52593 3.05242 2.89312 2.58004
threshold=222.14285714285663 0.0029836092686967015 81649.836860527837 108405.99213069679 76867.635831054606 80196.531108096227 0.0013891172093488864 189.7782687934745 287.27857142857209 0.006181519039807854 98023.375644851258 1805.1913876077308 102324.95564699064 82809.415935353129 165.44642857142912 106064.90028518198 56.265771275669941 911.09570473482029 104355.77544504921 103691.0307414547 102793.57354691553 115.55000000000136 104670.47798530232 110168.78215399383 0.0017411626068940154 -0.0011610357357528243 95873.751169719719 172.84285714285684
decision_type=2 2 2 2 2 2 2 2 2 2 2 2 2 2 2 2 2 2 2 2 2 2 2 2 2 2 2 2
left_child=6 2 5 7 25 8 14 -4 -2 10 -6 -7 -11 16 20 22 24 -18 19 -16 26 -22 -15 -5 -8 -3 -1 -20
right_child=1 4 3 23 9 11 13 -9 -10 12 -12 -13 -14 15 18 -17 17 -19 27 -21 21 -23 -24 -25 -26 -27 -28 -29
leaf_value=-0.054930434788864474 0.19878928516913144 0.22647863863298212 0.0037543811308049721 -0.069201855570570112 0.05126302804455244 0.2144077993069182 -0.051493319261501906 0.17635545147972156 -0.032422710455920219 0.07450138523111989 0.017132592866185507 0.048145536557145686 0.20602890024167714 -0.017820751595190306 -0.030689984556919278 0.12269592038904763 0.25380951774983279 0.015213074559740792 -0.013137489959890936 0.027274006453999952 0.025828323696393343 -0.050166209200097761 -0.08072988864639874 -0.022309769028232711 0.05992664219393054 0.13562820912995274 -0.072753105789142014 -0.06561212399251394
leaf_weight=226.90998591482639 4.9883299916982677 6.7493427097797385 1756.290791362524 52.939371719956398 427.55525243282318 15.170404553413393 6.6747949123382586 7.3483139127492896 20.036454454064369 104.10128054022789 246.84947745501995 8.4080782532691938 8.2813774049282056 169.41936965286732 333.79174403846264 4.9201057851314536 4.7658979892730695 5.1618421375751495 10.407657891511915 17.607649952173233 16.987169250845909 100.07231768965721 10.353944748640059 25.661573529243469 4.9438396394252777 8.1806975901126844 152.1522308588028 93.955587178468704
leaf_count=1087 22 27 7822 248 1808 66 30 32 87 425 1062 36 34 777 1549 23 21 23 49 82 81 477 48 119 22 33 731 440
internal_value=-7.55845e-05 0.017047 0.00404748 0.00198329 0.0477063 0.0822878 -0.0398845 0.00447353 0.0136661 0.0452585 0.0387704 0.155119 0.0841935 -0.00974913 -0.0464137 -0.0176042 0.0575836 0.129753 -0.035249 -0.0277856 -0.0566702 -0.0391382 -0.021444 -0.0538926 -0.00408306 0.176698 -0.0620843 -0.0603791
internal_weight=3850.68 2692.56 1890.84 1842.24 801.717 48.6033 1158.12 1763.64 25.0248 786.787 674.405 23.5785 112.383 206.24 951.884 184.693 21.5464 9.92774 455.763 351.399 496.122 117.059 179.773 78.6009 11.6186 14.93 379.062 104.363
internal_count=17261 11821 8432 8221 3389 211 5440 7854 109 3329 2870 102 459 944 4496 848 96 44 2120 1631 2376 558 825 367 52 60 1818 489
is_linear=0
shrinkage=0.1


Tree=6
num_leaves=30
num_cat=0
split_feature=9 9 7 6 3 5 6 5 8 9 9 6 10 4 10 10 1 7 3 1 5 4 3 8 1 0 3 9 8
split_gain=224.367 40.456 19.8226 9.98555 21.5073 16.2345 9.79043 23.295 13.9724 15.597 13.2521 8.2046 8.06375 9.42179 8.18096 8.02856 7.9641 7.80698 7.77015 7.74847 6.65062 6.39424 6.09534 4.95134 9.83478 5.59929 4.4087 4.28415 2.99907
threshold=332.63571428571396 210.2785714285726 1823.6681265317022 106706.00554641343 104700.5900744503 106904.22328915058 85996.250211539518 85594.312328501313 -115.8575059771815 457.15000000000049 561.89999999999895 100844.47983849472 175708.08040000036 80.549326160029679 -275886.3830000122 -309807.48854999582 0.0017327409833375917 368.23872450471396 91165.842271775153 0.0031035754318489155 111216.57608615501 20.349224485406754 109613.43088359074 -41.494737762289539 0.001404959873260157 -0.0022563708375290532 106167.17947291561 147.37499999999901 -19.798609337535662
decision_type=2 2 2 2 2 2 2 2 2 2 2 2 2 2 2 2 2 2 2 2 2 2 2 2 2 2 2 2 2
left_child=1 17 6 4 18 -6 7 10 11 -10 -2 -8 14 22 15 -3 -15 26 -4 -9 28 -16 -14 24 -19 -25 27 -1 -5
right_child=2 12 3 20 5 -7 8 19 9 -11 -12 -13 13 16 21 -17 -18 23 -20 -21 -22 -23 -24 25 -26 -27 -28 -29 -30
leaf_value=-0.069034351106579725 0.03571528320412419 3.5949245028324515e-06 0.047731081872723645 0.012216972928344052 0.15542334788397336 0.057745743519706683 0.12177282100816732 0.18255404686816104 -0.0041597987143091302 0.038877789358367859 -0.0600312210716651 0.0074036814560065325 0.00047614810051428236 0.17045151720191043 0.051176791374203459 0.071211042316794829 0.012454727072089207 -0.027508716616922904 0.027560005759393241 0.059946275625115002 0.068745834668143005 -0.017796121977323744 0.10947830056296466 0.024205099012539102 0.050611220315247056 -0.036587788790228316 0.045833092597381879 -0.021178427577930495 -0.069555689311292787
leaf_weight=112.49097165465355 100.38405813276768 148.15837289392948 331.57862056791782 6.3125488609075608 26.37350606918335 47.956102401018143 17.019010633230213 13.227372080087664 370.39587642252445 108.98287212848663 16.887495279312134 9.9335853010416013 227.01631127297878 6.3597303926944715 13.662254095077513 17.728523194789886 6.4018680453300476 77.51535975933075 450.35359834134579 8.4454190880060178 6.5914945006370536 829.97022326290607 5.2487381845712653 15.488419979810713 20.345144227147102 694.43030534684658 3.9707799553871146 22.437793895602226 15.492680847644804
leaf_count=607 429 680 1367 27 110 196 70 58 1650 475 70 42 1062 29 64 81 29 390 1889 37 28 3949 24 78 89 3532 19 113 67
internal_value=-7.02038e-05 -0.020514 0.0293438 0.0390652 0.0409999 0.0924035 0.0160159 0.0395299 0.00956338 0.00562445 0.0219275 0.0796212 -0.00873749 0.00753582 -0.0126873 0.00761362 0.0911923 -0.0361204 0.0361136 0.134776 -0.019275 -0.0166791 0.00293938 -0.0323547 -0.0112676 -0.0352615 -0.05802 -0.0610762 -0.0458827
internal_weight=3731.16 2201.22 1529.93 884.659 856.262 74.3296 645.276 138.944 506.331 479.379 117.272 26.9526 1254.55 245.027 1009.52 165.887 12.7616 946.679 781.932 21.6728 28.3967 843.632 232.265 807.779 97.8605 709.919 138.9 134.929 21.8052
internal_count=17261 10746 6515 3684 3562 306 2831 594 2237 2125 499 112 5918 1144 4774 761 58 4828 3256 95 122 4013 1086 4089 479 3610 739 720 94
is_linear=0
shrinkage=0.1


Tree=7
num_leaves=30
num_cat=0
split_feature=9 9 9 10 10 1 6 5 3 9 3 4 5 7 7 8 5 8 9 6 7 1 1 3 2 4 8 8 6
split_gain=522.537 144.84 61.4548 25.6448 28.8114 20.8757 20.6077 14.5438 14.0597 16.3489 12.9003 12.7764 15.692 12.0513 10.2852 9.24539 9.22517 9.47164 6.94707 6.34953 6.26205 6.07721 5.69347 5.1349 5.06708 4.05293 2.96184 2.46407 0.3455
threshold=343.24642857142891 208.91071428571536 517.02499999999839 -159595.4013000064 302191.53585000307 0.0010773227915088889 107073.54082779701 103062.41007994795 79354.13150443077 675.14642857142883 83881.690091613244 36.211512565727787 86806.180331737516 3880.6685138315229 2138.0076296401098 115.58329845877806 94977.020475849407 -120.3197585579572 468.22857142857026 102536.34421761842 386.25067337589286 0.0019062794520818892 0.0019277369839503867 108800.4396986244 93217.964335767043 52.539484439565783 -43.220664995045375 2.5320700619329792 77377.033669538141
decision_type=2 2 2 2 2 2 2 2 2 2 2 2 2 2 2 2 2 2 2 2 2 2 2 2 2 2 2 2 2
left_child=1 5 6 16 7 10 11 -5 26 14 25 13 -13 -2 -10 -11 17 -3 22 -6 -12 24 -8 -18 -7 -1 28 -28 -4
right_child=2 3 8 4 19 21 18 -9 9 15 20 12 -14 -15 -16 -17 23 -19 -20 -21 -22 -23 -24 -25 -26 -27 27 -29 -30
leaf_value=-0.053190643052684144 -0.05151816759271273 -0.14316672673297312 -0.1236821442935777 0.011131589216781099 -0.027219653390982115 0.023272745866568478 0.0013097290062956419 0.03324680325867737 -0.063534626582857551 -0.080977448250801928 0.071710161498010835 -0.04666258112586083 -0.01618313599545413 0.051590146773859827 -0.031625770688032268 -0.041975647667747334 -0.0069638175828139375 -0.027237396204174272 -0.051860031724316247 0.0080800609205892143 0.053012534219532226 -0.033172524244082069 0.06835793413801948 0.043466109997100058 0.041546272670098174 0.030618686054296785 -0.045740325237342595 -0.098933404885450438 -0.15124034274265824
leaf_weight=13.239441424608232 260.44403451681137 7.3312168121337882 11.85270667076111 1031.2568256556988 199.31981414556503 251.03673931956291 19.951399475336075 417.86220470070839 154.69467887282372 259.43357634544373 253.08183142542839 214.22905787825584 798.54447817802429 11.851438611745833 291.1148826777935 79.375114172697067 232.96899670362473 182.14332085847855 8.8017807304859144 68.457757562398911 612.90895590186119 13.628176420927046 34.678404718637466 22.106840699911118 383.64981341362 10.227558583021162 10.746533662080763 45.919070392847061 7.3831033408641806
leaf_count=38 726 20 32 3021 575 759 59 1248 430 705 802 599 2262 33 807 220 677 520 25 200 1916 39 104 65 1175 31 29 124 20
internal_value=0.000106412 0.0230877 -0.038378 0.00639742 0.0119401 0.0465471 -0.0250541 0.0175086 -0.0592576 -0.055282 0.0564943 -0.0278005 -0.0226304 -0.0470305 -0.0426981 -0.0718402 -0.0150088 -0.031723 0.0305875 -0.0181952 0.0584768 0.0328998 0.0438712 -0.00259317 0.0343186 -0.0166643 -0.100355 -0.0888454 -0.13426
internal_weight=5908.24 3699.22 2209.02 2161.45 1716.9 1537.77 1348.5 1449.12 860.52 784.618 889.458 1285.07 1012.77 272.295 445.81 338.809 444.55 189.475 63.4316 267.778 865.991 648.315 54.6298 255.076 634.687 23.467 75.9014 56.6656 19.2358
internal_count=17261 11086 6175 6326 5044 4760 3808 4269 2367 2162 2787 3620 2861 759 1237 925 1282 540 188 775 2718 1973 163 742 1934 69 205 153 52
is_linear=0
shrinkage=0.1


Tree=8
num_leaves=26
num_cat=0
split_feature=9 1 2 9 2 3 2 5 3 1 5 7 6 7 3 8 3 10 3 1 6 9 7 2 10
split_gain=211.594 79.4147 25.8001 21.0949 19.9322 18.7011 18.0254 17.0796 15.2095 14.2017 14.2209 11.3809 9.81454 15.1438 7.99168 6.88798 6.66875 6.24075 5.94801 3.7974 3.69187 8.33038 4.20275 3.68212 3.59124
threshold=222.14285714285663 0.0029836092686967015 104310.97150265946 165.44642857142912 81649.836860527837 76847.116523470308 80196.531108096227 83876.966598799001 98700.060869997164 0.006181519039807854 98023.375644851258 4718.6791751198625 108405.99213069679 920.38729832800175 82384.67142436924 -5.334709357997137 104355.77544504921 370653.34629998083 103691.0307414547 0.0014132593459420582 102793.57354691553 115.55000000000136 692.67869400084612 110168.78215399383 -424153.62200000032
decision_type=2 2 2 2 2 2 2 2 2 2 2 2 2 2 2 2 2 2 2 2 2 2 2 2 2
left_child=3 2 4 17 6 24 -2 14 -6 10 -7 -11 13 -4 -5 -16 18 20 -9 -18 22 -22 -1 -14 -3
right_child=1 5 12 7 8 9 -8 16 -10 11 -12 -13 23 -15 15 -17 19 -19 -20 -21 21 -23 -24 -25 -26
leaf_value=-0.063201585361547644 0.010863478771643915 0.20669057371431201 0.031789788074840272 0.14151522271238823 0.0015663881302960998 0.043537384178146836 0.12895930280406237 -0.027036537121508494 0.025559454287137295 0.093253351530699136 0.013897813123413597 0.029539183916515568 -0.067368213877100541 -0.022284186631959566 -0.031373088717835521 0.048627724852414192 -0.058231094795855878 0.045671395793130898 0.026958049017833163 0.00061664593334575515 0.026560297843476029 -0.049818097702221897 -0.031665056823594821 -0.020384145617772059 0.1101999367647504
leaf_weight=315.21536868810654 25.586067736148834 6.0603253543376949 64.621688544750214 5.7736629992723456 1099.8500777333975 448.64659698307514 26.117631986737251 441.26853822171688 347.74007931351662 76.669831365346909 253.25239735841751 44.196252226829529 49.945303425192833 260.8557168841362 17.98044815659523 26.808635473251343 99.540566116571426 6.3491491377353659 21.390923470258713 12.322968229651449 16.88903434574604 92.4323490858078 48.799719527363777 25.043813735246658 10.610452070832251
leaf_count=1620 109 21 294 24 4850 1808 102 2115 1530 289 1062 170 248 1180 81 119 495 30 100 58 81 467 250 119 39
internal_value=-9.54141e-05 0.0148046 0.00348625 -0.0370389 0.00950908 0.0404196 0.0705185 -0.024934 0.00733 0.038295 0.0328431 0.0699554 -0.0190624 -0.0115481 0.0307855 0.0165116 -0.0298377 -0.0528129 -0.0245401 -0.0517484 -0.054134 -0.0380184 -0.0589738 -0.0516771 0.145277
internal_weight=3843.97 2739.2 1899.76 1104.77 1499.29 839.436 51.7037 625.086 1447.59 822.765 701.899 120.866 400.467 325.477 50.5627 44.7891 574.523 479.686 462.659 111.864 473.336 109.321 364.015 74.9891 16.6708
internal_count=17261 11821 8432 5440 6591 3389 211 2992 6380 3329 2870 459 1841 1474 224 200 2768 2448 2215 553 2418 548 1870 367 60
is_linear=0
shrinkage=0.1


Tree=9
num_leaves=28
num_cat=0
split_feature=9 9 7 5 5 3 5 3 8 8 5 10 9 9 7 10 10 10 7 4 4 8 1 4 2 9 5
split_gain=174.207 33.792 15.8152 13.4913 31.3628 13.8852 17.2043 14.074 11.0094 9.712 9.9606 8.81625 8.43721 7.63586 7.24273 6.72144 7.25923 6.52229 6.48173 5.33433 5.23691 4.57498 8.31125 5.36803 4.22792 4.30667 4.14686
threshold=332.63571428571396 210.2785714285726 1290.1096535569088 105755.78335113787 108730.62340346865 101214.53149651024 102264.97013804175 102279.39042172428 -15.126008990009899 -130.26986136244616 93552.651471144389 1136467.6909000238 407.03571428571331 446.16785714285817 368.23872450471396 101260.57864999444 -275886.3830000122 -309807.48854999582 1413.6357065436607 20.349224485406754 29.457096068737751 -41.494737762289539 0.001404959873260157 18.094119384586538 106064.90028518198 147.37499999999901 109672.13790057176
decision_type=2 2 2 2 2 2 2 2 2 2 2 2 2 2 2 2 2 2 2 2 2 2 2 2 2 2 2
left_child=1 14 9 5 8 6 -4 -7 -5 -2 12 -12 -11 -6 24 16 17 -3 26 -18 -20 22 -16 -23 25 -1 -17
right_child=2 15 3 4 13 7 -8 -9 -10 10 11 -13 -14 -15 21 18 19 -19 20 -21 -22 23 -24 -25 -26 -27 -28
leaf_value=-0.066983302962561872 0.13759145450350874 -0.00074104405628983309 0.028778841429676662 0.059944592748549276 -0.042998522465850751 -0.049226566010281143 0.13975946681427587 0.016389672701325894 0.12050906792688354 0.057820994497191948 -0.015160454568357188 0.072362068043565056 -0.010693959497930342 0.026240492131685146 -0.024772917997428257 -0.0053188165086829999 0.048350492359728631 0.061890823202175677 -0.02672635910275481 -0.017964615450624204 0.043792671731096723 0.066550780231191292 0.046631438392583859 -0.033341150367647586 0.046556595617027116 -0.017741541194338052 0.060807833432644481
leaf_weight=103.24514518678188 5.3426708579063407 149.20026504993439 910.02418896555901 76.456403881311417 26.334256380796432 44.085903078317642 14.185990154743193 126.43949642777443 49.411932468414307 48.122797504067421 193.76994048058987 12.23593796789646 28.687933146953583 40.306438103318214 74.540779039263725 269.26690059900284 12.339850082993506 18.712105616927147 12.880929425358771 712.73392167687416 57.719518974423409 5.4229559600353232 20.863727763295174 673.74271079897881 3.9511739164590827 21.451595157384872 9.8296364992856962
leaf_count=607 20 680 3706 302 122 185 55 531 203 201 861 52 118 159 390 1276 56 81 59 3456 266 25 89 3585 19 113 44
internal_value=-5.4679e-05 -0.0185933 0.0251972 0.0299378 0.054351 0.0256447 0.0304823 -0.000574083 0.0837203 0.00402071 0.00149743 -0.00996196 0.0322314 -0.00112054 -0.0333125 -0.00789488 -0.0124972 0.00623863 0.00385754 -0.016836 0.0309266 -0.0296631 -0.00915771 -0.0325435 -0.0552852 -0.0585122 -0.00298987
internal_weight=3721.31 2145.9 1575.4 1287.24 192.509 1094.74 924.21 170.525 125.868 288.159 282.817 206.006 76.8107 66.6407 903.218 1242.68 892.986 167.912 349.697 725.074 70.6004 774.57 95.4045 679.166 128.648 124.697 279.097
internal_count=17261 10746 6515 5263 786 4477 3761 716 505 1252 1232 913 319 281 4828 5918 4273 761 1645 3512 325 4089 479 3610 739 720 1320
is_linear=0
shrinkage=0.1


Tree=10
num_leaves=31
num_cat=0
split_feature=9 9 9 6 5 4 1 6 1 8 10 10 3 10 9 9 8 10 4 7 2 9 6 6 6 7 7 5 7 7
split_gain=409.365 118.972 49.2456 22.1304 18.4936 17.0458 15.0179 13.9253 12.8948 10.3572 9.83223 9.68374 9.40692 8.95652 8.39576 7.19128 9.67561 6.6694 6.66256 9.16086 6.03044 5.89756 5.64054 5.62865 10.4574 5.08923 3.75032 3.35075 3.31046 1.77033
threshold=343.24642857142891 199.65357142857258 594.19642857142765 93896.559960791958 82379.053524947274 20.349224485406754 0.0010773227915088889 107073.54082779701 0.0027165188600829812 78.4403821812259 370653.34629998083 -642422.66934999253 83881.690091613244 -263508.74819999532 468.22857142857026 468.22857142857026 85.864142537667405 -159595.4013000064 22.643878083661118 3551.3520782078999 84090.703402974163 187.37499999999901 83142.991521464588 99309.265391629582 97686.698985909941 386.25067337589286 3181.8361373794473 84676.047181886606 1373.8775452785778 2024.5728808736606
decision_type=2 2 2 2 2 2 2 2 2 2 2 2 2 2 2 2 2 2 2 2 2 2 2 2 2 2 2 2 2 2
left_child=1 6 4 5 15 27 12 11 13 18 -7 -6 22 -5 -9 16 -2 21 -4 -20 -19 -8 -1 24 -11 -14 -25 -3 -10 -17
right_child=2 3 9 8 7 10 17 14 28 23 -12 -13 25 -15 -16 29 -18 20 19 -21 -22 -23 -24 26 -26 -27 -28 -29 -30 -31
leaf_value=0.022899961178954199 -0.064931368790903277 -0.13772387811267761 -0.10484282428643993 -0.0050655174781640729 -0.043047851983908751 0.0010765737620644972 0.021386413110617956 0.040722631259812507 -0.015537893834582168 -0.041635424237221504 -0.03213980363352241 -0.020963529993905643 0.06692712910271853 0.019798261626122707 -0.036655315869479205 -0.067727870774843518 0.047989764996543997 0.010276873808423556 -0.077462493473388544 -0.044448933069902573 0.040665978463196632 -0.044998660343598576 -0.087995142376619692 -0.14284344596944698 0.038261440351458773 0.049481308881180817 -0.058888607796346207 -0.060291267694514199 -0.076810834619094506 -0.11377131186928285
leaf_weight=14.050932824611666 39.792421102523804 8.3144511282444018 43.93363618850708 165.41197139024734 235.69331407546997 813.35390087962151 42.384048074483871 53.48344823718071 18.6847303211689 140.37184688448906 100.07938393950462 1259.9920245409012 239.13186448812485 1167.1301285624504 19.005413502454758 11.790710180997847 9.3759035468101484 78.991909146308899 198.60552433133125 145.72597450017929 376.72997084259987 19.55733996629715 6.8094690442085257 7.3295869231224087 18.546379327774048 555.98259365558624 19.414256036281586 17.045366883277893 16.697364658117294 28.621450513601303
leaf_count=42 108 23 118 481 651 2370 132 163 53 382 285 3514 800 3495 53 32 26 241 535 392 1183 60 20 20 51 1806 53 48 47 77
internal_value=8.82687e-05 0.0207614 -0.033634 0.00701547 -0.0248935 -0.00480796 0.0445368 -0.0223691 0.0151298 -0.0588804 -0.00256274 -0.0244436 0.052989 0.0167119 0.0204354 -0.0690852 -0.0433984 0.0312139 -0.0681698 -0.0634907 0.0353985 0.000426026 -0.0132996 -0.0394539 -0.0323111 0.0547282 -0.0818978 -0.0856783 -0.0444536 -0.100338
internal_weight=5872.04 3640.36 2231.68 2306.72 1657.75 938.793 1333.64 1568.17 1367.92 573.927 913.433 1495.69 815.975 1332.54 72.4889 89.5805 49.1683 517.663 388.265 344.331 455.722 61.9414 20.8604 185.662 158.918 795.114 26.7438 25.3598 35.3821 40.4122
internal_count=17261 11086 6175 6802 4624 2726 4284 4381 4076 1551 2655 4165 2668 3976 216 243 134 1616 1045 927 1424 192 62 506 433 2606 73 71 100 109
is_linear=0
shrinkage=0.1


Tree=11
num_leaves=26
num_cat=0
split_feature=1 1 9 6 2 6 4 7 3 2 8 1 0 5 5 1 9 8 5 4 7 3 3 7 8
split_gain=171.818 57.8174 28.2598 27.4738 18.7071 16.2534 14.7391 14.5818 14.9458 13.776 12.5437 12.0904 11.1328 10.8675 19.1889 8.59763 8.2217 6.59875 5.38874 4.77973 4.33065 5.61306 2.66023 2.62768 1.12553
threshold=0.0013891172093488864 0.0027559536219991273 189.7142857142847 81640.463234023395 94273.716637689344 108405.99213069679 29.457096068737751 849.00398149287514 79354.13150443077 93960.981710274267 12.142523158200889 0.006181519039807854 -0.0017763564033959065 83345.012699783125 82777.006854975465 0.001279682831655868 244.12499999999952 53.665495178523862 83345.012699783125 56.265771275669941 500.07745245542907 107464.28762370138 103065.74092503068 660.87137572235963 -95.513126648101519
decision_type=2 2 2 2 2 2 2 2 2 2 2 2 2 2 2 2 2 2 2 2 2 2 2 2 2
left_child=2 3 18 13 9 6 -5 -3 17 16 12 -10 -6 14 -2 -11 -4 -9 19 -1 22 -22 -20 -12 -7
right_child=1 7 4 5 10 24 -8 8 11 15 23 -13 -14 -15 -16 -17 -18 -19 20 -21 21 -23 -24 -25 -26
leaf_value=0.080743870713422788 0.046807790267071929 0.15867768831137977 -0.0096570989705163854 0.032131205623337177 0.069717603158793204 -0.016821641543478871 -0.0019313016492856659 0.10325595733164253 0.023761652393573925 0.045168237062424246 -0.075998499950412871 0.058360716038859797 -0.017101798239292785 -0.085195126361779588 0.18902208823608888 0.23913318981224507 0.048456718338356727 0.039958306232113848 -0.061964054718663043 -0.039094843958577305 -0.042029390172411085 0.04750075698360208 -0.040034384617727056 -0.04207916270961766 -0.061488922081807652
leaf_weight=6.1638412773609144 70.625033617019653 9.0655609518289548 71.79241880774498 139.52928902208805 15.93578554689884 6.4461527466773978 1418.4668335467577 39.236422136425972 822.90805557370186 4.7876799255609495 28.448316767811775 115.12811300158501 201.83340995013714 5.0542644858360282 10.960159823298453 4.3721439093351364 36.835416361689568 28.384128883481026 229.44896304607391 7.2345203757286072 319.09907537698746 7.159749671816825 72.88886633515358 115.83056898415089 45.181060612201691
leaf_count=28 284 37 335 603 74 33 6336 137 3312 23 141 416 975 20 44 20 163 99 1262 34 1680 38 382 557 228
internal_value=-8.21431e-05 0.0135378 -0.0329957 0.00224264 -0.0146371 -0.000709988 0.00111923 0.0324194 0.0312812 0.01998 -0.0258993 0.0280081 -0.0107486 0.0570977 0.0659129 0.137751 0.0100491 0.0766864 -0.0467172 0.0160363 -0.0480548 -0.0400647 -0.0566772 -0.0487672 -0.0559118
internal_weight=3832.82 2710.99 1121.83 1696.26 479.836 1609.62 1558 1014.72 1005.66 117.788 362.048 938.036 217.769 86.6395 81.5852 9.15982 108.628 67.6206 641.995 13.3984 628.597 326.259 302.338 144.279 51.6272
internal_count=17261 11549 5712 7548 2288 7200 6939 4001 3964 541 1747 3728 1049 348 328 43 498 236 3424 62 3362 1718 1644 698 261
is_linear=0
shrinkage=0.1


Tree=12
num_leaves=29
num_cat=0
split_feature=9 9 8 5 1 7 2 5 2 1 4 5 5 7 7 5 5 2 6 8 7 8 9 0 9 4 2 4
split_gain=135.848 28.2676 13.0915 12.731 16.3586 10.3376 11.8067 9.20365 10.117 19.8197 9.94988 8.92227 6.7663 6.67821 5.88541 12.0425 10.2527 7.26817 11.0871 6.33999 4.96375 4.17322 7.14534 5.03792 4.10708 6.2075 2.23069 1.75372
threshold=332.63571428571396 210.2785714285726 -97.758151018212985 80381.891047422789 0.0027165188600829812 1290.1096535569088 105306.95916267396 109532.93612264497 94158.592400199923 0.0085193779090617199 15.281992880811062 79365.03668405558 95991.806080398863 368.23872450471396 1209.2882007457958 98097.668925107908 105950.18791360442 83402.90102922394 83372.533836168819 -57.012603630637564 601.48738371832599 -41.494737762289539 156.25000000000003 -0.0022563708375290532 141.61428571428408 45.578916310294694 105389.75309772884 34.58545937420363
decision_type=2 2 2 2 2 2 2 2 2 2 2 2 2 2 2 2 2 2 2 2 2 2 2 2 2 2 2 2
left_child=1 13 7 4 -4 12 -7 8 9 -2 -10 -6 -5 24 15 20 -17 19 -19 -16 -3 22 -15 -23 26 -26 -1 -9
right_child=2 14 3 5 11 6 -8 27 10 -11 -12 -13 -14 21 17 16 -18 18 -20 -21 -22 23 -24 -25 25 -27 -28 -29
leaf_value=-0.066394657282668676 0.013158794528778295 -0.030509992023490102 0.21702423196373549 0.021009829451823194 0.0078204666558066415 0.016188711062363064 0.05111325785009483 -0.084148877148381082 -0.023101435975675193 0.15165658776576588 0.068516478033015166 0.092221047975817635 -0.012838049824185935 -0.071021799244116557 0.016044442873232818 -0.040294843269752766 -0.0017887818296686503 0.099566088584152307 0.0044647519456069203 -0.058906372807894083 0.00087935768046999273 0.027047423575169351 0.004649159160798522 -0.031339558063772095 0.061830064513761523 -0.047067059216110194 0.001674285179488956 -0.0042900598428640699
leaf_weight=87.324854418635368 130.06295998394489 56.558042332530022 6.1949186027050009 86.937737464904785 28.503229573369026 866.41156104207039 108.9726702272892 6.2340145856142026 12.911428406834601 11.224328592419623 144.70767077803612 22.343723893165588 184.17417901754379 14.83645638823509 17.278761610388756 207.23970587551594 103.77299973368645 12.717121362686155 340.04824814200401 32.539706856012344 461.09115515649319 15.129400372505186 78.517813146114349 636.48790727555752 7.1192354261875179 19.773818954825401 5.0953077375888816 4.9202454686164856
leaf_count=561 491 272 22 360 107 3507 443 26 51 40 546 84 818 81 76 1057 505 58 1600 154 2196 78 398 3532 37 111 30 20
internal_value=-1.28078e-05 -0.0168063 0.0217964 0.0174035 0.063601 0.0152894 0.0200906 0.0402651 0.0435933 0.0241615 0.0610116 0.0449087 -0.00198402 -0.0306688 -0.00707542 -0.0118944 -0.0274468 0.00284377 0.00789314 -0.0329108 -0.00255022 -0.027151 -0.00737695 -0.0299839 -0.0526336 -0.0182394 -0.0626419 -0.0489224
internal_weight=3709.13 2095.53 1613.6 1303.54 57.0419 1246.5 975.384 310.061 298.906 141.287 157.619 50.847 271.112 864.285 1231.25 828.662 311.013 402.584 352.765 49.8185 517.649 744.972 93.3543 651.617 119.313 26.8931 92.4202 11.1543
internal_count=17261 10746 6515 5341 213 5128 3950 1174 1128 531 597 191 1178 4828 5918 4030 1562 1888 1658 230 2468 4089 479 3610 739 148 591 46
is_linear=0
shrinkage=0.1


Tree=13
num_leaves=31
num_cat=0
split_feature=9 9 9 10 10 9 2 5 5 6 8 8 2 8 9 10 5 1 9 8 9 8 10 4 6 7 2 7 6 7
split_gain=321.389 97.4794 39.9706 17.5353 20.0538 16.1313 14.8018 14.6721 12.2571 10.7261 8.90534 8.49581 8.25945 12.5141 7.15001 6.7066 6.65792 7.34371 6.17595 8.20075 6.12971 6.28725 5.28927 5.19823 5.15995 5.02306 4.73583 4.3558 4.11159 1.50686
threshold=343.24642857142891 211.69285714285903 594.19642857142765 -159595.4013000064 302191.53585000307 165.44642857142912 84133.953557192755 82379.053524947274 103062.41007994795 107073.54082779701 76.290887390519742 -23.320089157204912 105673.46457901799 6.6836074887833474 468.22857142857026 -159595.4013000064 94977.020475849407 0.0023883323137714285 468.22857142857026 85.864142537667405 1263.1678571428563 -239.92714254655922 3664473.1236499776 60.245401814036619 100524.44979512441 1162.2184591848929 83738.827867493863 2138.0076296401098 100844.47983849472 2024.5728808736606
decision_type=2 2 2 2 2 2 2 2 2 2 2 2 2 2 2 2 2 2 2 2 2 2 2 2 2 2 2 2 2 2
left_child=1 5 7 16 8 12 26 18 -5 11 20 -9 23 -14 -11 -8 17 -3 19 -2 21 -4 24 -1 -12 -6 -7 -18 -22 -20
right_child=2 3 10 4 25 6 15 9 -10 14 22 -13 13 -15 -16 -17 27 -19 29 -21 28 -23 -24 -25 -26 -27 -28 -29 -30 -31
leaf_value=0.055540735487754789 -0.056881094397882859 -0.036902026512582252 -0.097811967779045772 0.0083728697347408773 -0.0027698371048544648 0.0051700110592048099 0.0042344698243771345 -0.030388870164741739 0.029151789870921981 0.037490401620120899 -0.022546612141585588 -0.015104947229370211 0.03287602897792255 -0.12836406863766112 -0.033954402433109016 0.036864187555726763 -0.0052415885035524941 0.012361518350339155 -0.059928873543034722 0.047093059114779692 -0.044917634863350236 -0.058727270592643259 -0.080731082136644858 0.034069672984812054 -0.080518568987262271 -0.030270666002877866 -0.044500386861230312 0.056085075040988579 0.052834787171671518 -0.10221791116776735
leaf_weight=549.27446526288986 40.224906295537949 151.90302205085754 47.162981659173965 994.97926932573318 142.06238916516304 69.443568676710129 70.39246454834938 612.59998235106468 397.21587762236595 52.278952986001968 150.3574785888195 895.107870221138 20.007410347461704 6.3383050560951224 19.134570747613907 599.04773151874542 239.21478018164635 37.786984115839005 11.912790715694426 9.3488885164260846 10.1072835624218 323.21301060914993 21.894972741603851 141.88522246479988 17.099696457386017 124.73013690114021 26.528573930263519 12.17087936401367 7.4925199449062339 28.786671936511993
leaf_count=1878 108 429 126 2941 410 207 221 1683 1217 163 407 2482 66 21 53 1939 696 106 32 26 27 866 59 483 46 356 81 35 20 77
internal_value=4.44086e-05 0.0186372 -0.0296066 0.00477678 0.00948846 0.0382659 0.0281678 -0.0217628 0.0143014 -0.0195213 -0.0522877 -0.021315 0.0490383 -0.00591544 0.0183474 0.0334331 -0.0129449 -0.0270885 -0.0609727 -0.0372731 -0.0609642 -0.0637042 -0.0345098 0.051133 -0.0284664 -0.015627 -0.00855986 -0.00227245 -0.00330285 -0.0898398
internal_weight=5829.7 3582.98 2246.72 2100.06 1658.99 1482.92 765.412 1669.39 1392.2 1579.12 577.328 1507.71 717.505 26.3457 71.4135 669.44 441.076 189.69 90.2733 49.5738 387.976 370.376 189.352 691.16 167.457 266.793 95.9721 251.386 17.5998 40.6995
internal_count=17261 11086 6175 6190 4924 4896 2448 4624 4158 4381 1551 4165 2448 87 216 2160 1266 535 243 134 1039 992 512 2361 453 766 288 731 47 109
is_linear=0
shrinkage=0.1


Tree=14
num_leaves=25
num_cat=0
split_feature=9 1 6 9 6 10 5 3 7 1 5 5 10 3 7 10 0 10 6 9 7 1 9 9
split_gain=139.355 45.878 21.4543 17.2451 15.6959 14.1068 13.0872 12.1198 11.3395 10.2791 9.62858 13.364 5.97004 5.54558 5.33657 8.63064 4.93288 4.8615 3.89587 8.42472 4.22054 3.81262 3.39192 3.2449
threshold=220.88928571428656 0.0027559536219991273 81640.463234023395 165.44642857142912 108405.99213069679 -252619.75060000157 83876.966598799001 76847.116523470308 849.00398149287514 0.0052335115305805419 83345.012699783125 82909.05707436279 370653.34629998083 104355.77544504921 830.08128923730703 101260.57864999444 0.00053145629076623024 35617.483950001661 102793.57354691553 115.55000000000136 692.67869400084612 0.0014669935741370066 283.18214285714208 640.11785714285531
decision_type=2 2 2 2 2 2 2 2 2 2 2 2 2 2 2 2 2 2 2 2 2 2 2 2
left_child=3 2 10 12 5 -4 14 23 -9 -10 11 -2 18 17 16 -16 -5 -8 20 -20 -1 -15 -6 -3
right_child=1 7 4 6 22 -7 13 8 9 -11 -12 -13 -14 21 15 -17 -18 -19 19 -21 -22 -23 -24 -25
leaf_value=-0.058883792150558528 0.042371837240925254 0.075854440244364579 0.021130098470481921 0.083189589397014485 -0.074152572625708638 -0.0033621843531649927 -0.012457454900279817 0.13237855000290322 0.020153926543765448 0.044630386620338802 -0.084103592931858831 0.16396450384270578 0.050329488588811734 -0.053211748542016414 -0.058558120722523754 0.09598081045568585 0.001645776059211182 -0.03465083435082196 0.035524037860635731 -0.04430160729027996 -0.025696199312667978 0.012756801623640955 -0.028796786797182918 0.1615953951780659
leaf_weight=274.9590749591589 74.787408962845802 12.236640363931658 285.50291572511196 19.918188348412517 28.990996748209 1333.7233073711395 270.56855739653111 10.010928228497503 796.57250173389912 218.67784774303436 5.1222582906484595 10.281698569655417 6.1513083577156058 89.786807864904404 12.940056100487711 5.0141462683677664 11.82144385576248 155.38465166091919 15.755168482661245 82.203507035970688 44.524312287569046 9.7081902027130109 38.233530223369598 6.9044444859027854
leaf_count=1620 291 39 1214 87 160 5964 1380 37 3126 778 21 37 30 492 58 21 51 788 81 467 250 47 201 21
internal_value=-5.5339e-05 0.0113095 0.0015319 -0.0321566 -0.00100939 0.000956309 -0.0208796 0.0279422 0.0264703 0.025426 0.0490503 0.0570679 -0.0474682 -0.0255185 0.0281717 -0.0153994 0.0528186 -0.0205534 -0.0489093 -0.0314629 -0.0542587 -0.0467749 -0.0483568 0.106782
internal_weight=3819.78 2821.04 1776.64 998.735 1686.45 1619.23 575.142 1044.4 1025.26 1015.25 90.1914 85.0691 423.593 525.448 49.6938 17.9542 31.7396 425.953 417.442 97.9587 319.483 99.495 67.2245 19.1411
internal_count=17261 11889 7888 5372 7539 7178 2924 4001 3941 3904 349 328 2448 2707 217 79 138 2168 2418 548 1870 539 361 60
is_linear=0
shrinkage=0.1


Tree=15
num_leaves=30
num_cat=0
split_feature=9 9 7 8 7 9 10 4 6 2 7 10 10 1 4 4 4 9 2 8 1 4 9 9 9 7 5 4 7
split_gain=106.327 23.1871 10.2753 7.12364 8.1705 11.0696 6.93053 7.99881 8.72092 7.49897 6.30987 5.62733 5.6961 6.25223 5.55496 6.51884 4.59817 4.0704 6.36235 3.76779 6.6086 4.89073 3.68963 2.79881 3.37127 3.15525 2.27938 1.59864 2.21225
threshold=332.63571428571396 210.2785714285726 1823.6681265317022 251.11452315758723 7585.7544770447721 736.73571428571256 971622.92450002453 46.247454180660931 104152.58023661283 101656.00012778245 368.23872450471396 89360.984950002327 -275886.3830000122 0.0011202026223700358 80.549326160029679 82.663632337972402 20.349224485406754 141.61428571428408 93822.531670244949 -41.494737762289539 0.001404959873260157 18.094119384586538 239.08571428571517 481.07142857142918 374.7749999999989 1426.5272468548649 105618.31861942133 70.898007161709387 3388.575851850605
decision_type=2 2 2 2 2 2 2 2 2 2 2 2 2 2 2 2 2 2 2 2 2 2 2 2 2 2 2 2 2
left_child=1 10 6 4 5 -4 7 9 -9 -2 17 12 13 -3 22 -16 -14 26 -19 20 -12 -21 -13 24 -8 -25 -1 -5 -29
right_child=2 11 3 27 -6 -7 23 8 -10 -11 19 14 16 -15 15 -17 -18 18 -20 21 -22 -23 -24 25 -26 -27 -28 28 -30
leaf_value=-0.063802247059115441 0.033737305538484148 0.11460294785428378 0.023045410946141966 -0.067460584953088487 -0.059820894593526755 0.051384593034240866 0.061125791337685413 -0.0095384272350505211 0.03031468900514285 -0.0043843535899183092 -0.020507097780417035 -0.018340352746349608 0.044928758924921486 0.0021431662475252552 0.15548975367719037 0.019296506128501225 -0.016110351657747945 0.087972292242291625 -0.039230653842425543 0.067486310395170543 0.043031895217426452 -0.028233015563085169 0.0064982987253990269 0.13395029725794239 0.0053945829418272665 0.04586726917618008 0.026354934307028201 0.048856900032649295 -0.023196624281800245
leaf_weight=82.585761800408363 153.65241402387619 5.0974367707967749 753.65133006870747 5.7755994647741309 10.660770952701567 168.68395957350731 17.801419124007225 316.23568902909756 66.445201888680458 77.692385762929916 70.172119930386543 76.049708634614944 12.573992177844046 163.77400824427605 5.0197363346815136 11.719942688941954 667.53924143314362 4.8342536687850979 21.070157155394554 5.3842965364456168 21.349519208073616 620.06051395833492 279.94543139636517 5.8422520756721523 27.81234210729599 13.381771773099898 2.9028151780366889 5.2462295889854458 22.692912846803665
leaf_count=574 621 23 2907 23 39 604 71 1334 290 334 390 365 55 738 21 50 3332 27 121 25 89 3585 1334 21 112 48 17 21 90
internal_value=3.62258e-05 -0.0151605 0.0189685 0.0255904 0.0272222 0.0282283 0.00953886 0.00625554 -0.0026187 0.0209349 -0.0280761 -0.00640337 -0.0109003 0.0055378 0.00383936 0.0601368 -0.0149819 -0.0502183 -0.0154922 -0.0246359 -0.00568517 -0.027409 0.00119212 0.0406325 0.0271445 0.072636 -0.0607409 -0.0195674 -0.00966688
internal_weight=3695.65 2050.08 1645.57 966.711 932.996 922.335 678.863 614.026 382.681 231.345 828.359 1221.72 848.985 168.871 372.735 16.7397 680.113 111.393 25.9044 716.966 91.5216 625.445 355.995 64.8378 45.6138 19.224 85.4886 33.7147 27.9391
internal_count=17261 10746 6515 3684 3550 3511 2831 2579 1624 955 4828 5918 4148 761 1770 71 3387 739 148 4089 479 3610 1699 252 183 69 591 134 111
is_linear=0
shrinkage=0.1


Tree=16
num_leaves=31
num_cat=0
split_feature=9 9 9 6 4 1 10 10 6 8 5 4 6 7 10 2 7 7 9 8 1 5 9 1 8 10 6 5 0 7
split_gain=252.648 80.3645 33.1237 17.5022 14.1605 11.3936 10.7131 11.3444 10.427 10.1444 9.47516 8.86312 10.3084 9.73545 7.70841 7.62216 7.50875 6.02743 5.70458 5.66125 5.02216 4.81018 4.66998 5.63234 4.35519 4.31286 4.05523 3.48151 2.42134 1.68364
threshold=343.24642857142891 193.60714285714081 517.02499999999839 93896.559960791958 22.643878083661118 0.0014559651605586075 580969.34909998009 -275886.3830000122 107073.54082779701 78.4403821812259 83823.624296648413 36.211512565727787 92885.390919166312 3880.6685138315229 302191.53585000307 85327.693602143714 1756.6999720151509 386.25067337589286 649.97500000000184 95.803196015222753 0.0015368639123875931 84124.016912701802 468.22857142857026 0.0019277369839503867 -22.128334663291053 -42931.708250003292 83816.996199583329 83020.997599074544 0.0039354388885609612 1471.5230965129015
decision_type=2 2 2 2 2 2 2 2 2 2 2 2 2 2 2 2 2 2 2 2 2 2 2 2 2 2 2 2 2 2
left_child=1 5 8 4 21 17 7 -5 11 10 28 13 -13 -2 -6 -12 29 24 -18 -8 25 -3 23 -10 -1 -7 -22 -19 -4 -11
right_child=2 3 9 6 14 20 19 -9 22 16 15 12 -14 -15 -16 -17 18 27 -20 -21 26 -23 -24 -25 -26 -27 -28 -29 -30 -31
leaf_value=0.0067347646213539213 -0.038061585732265958 -0.13900622832861911 -0.086403147702931782 -0.0081246402124162502 0.0019279678125978202 -0.084802768266083517 -0.013215837835106362 0.019111431983304603 -0.0074403049052693369 -0.056156665422893298 -0.016414093641794764 -0.02769460936502955 -0.0067688857038879294 0.054167420133436409 -0.024269574478470682 -0.048885706493701886 -0.0058238284376788676 -0.040903897063203444 -0.03544035105496187 -0.098734279521763502 -0.019745778138483591 -0.047557302550423716 -0.042241772761276913 0.061007386062867854 0.059426685044745034 -0.0022756844188381257 0.038240482231484685 0.037902888842954334 -0.044969377785508795 -0.11773280410877369
leaf_weight=16.916529446840286 267.98728600144386 7.2866470217704764 73.185929596424103 176.24120002985001 815.46080189943314 9.8921194970607775 67.615668058395386 1156.2003465592861 19.075158476829529 8.48690313100815 87.200607597827911 361.55381211638451 674.76263552904129 11.955734491348265 130.25731945037842 422.72492280602455 124.917465955019 5.6445814967155448 135.67127335071564 8.7417035996913892 17.516061872243881 27.306740999221802 9.0340128540992719 32.512156516313553 215.68503987789154 17.597591042518616 38.722503066062927 816.70297661423683 17.471121728420258 9.3131577074527723
leaf_count=60 726 20 197 510 2390 31 198 3555 59 23 234 988 1873 33 368 1137 339 17 365 25 53 76 25 104 803 57 124 2799 47 25
internal_value=-1.17835e-05 0.0167015 -0.0261486 0.00628159 -0.00397897 0.0385639 0.0134214 0.0155089 -0.0164669 -0.0413147 -0.0486289 -0.0183344 -0.0140695 -0.0341227 -0.00168032 -0.0433328 -0.0255355 0.041382 -0.0212432 -0.0230063 0.00305719 -0.0668198 0.024083 0.0356979 0.0555945 -0.0319729 0.0201801 0.037362 -0.0784182 -0.0883739
internal_weight=5783.64 3527.79 2255.85 2389.11 980.312 1138.68 1408.8 1332.44 1376.88 878.971 600.583 1316.26 1036.32 279.943 945.718 509.926 278.389 1054.95 260.589 76.3574 83.7283 34.5934 60.6213 51.5873 232.602 27.4897 56.2386 822.348 90.6571 17.8001
internal_count=17261 11086 6175 7142 2854 3944 4288 4065 3808 2367 1615 3620 2861 759 2758 1371 752 3679 704 223 265 96 188 163 863 88 177 2816 244 48
is_linear=0
shrinkage=0.1


Tree=17
num_leaves=29
num_cat=0
split_feature=1 1 9 2 2 2 6 8 2 2 5 6 9 6 8 7 3 0 1 6 9 9 1 3 6 9 5 7
split_gain=113.687 33.1633 22.7657 15.1471 14.6958 21.1567 14.9028 11.9692 11.0701 10.6802 9.98579 16.5695 12.9561 9.26679 10.5175 9.04694 12.6914 8.7712 8.69827 6.7756 6.57185 5.87321 5.46991 4.82241 3.9304 7.18869 3.92124 2.62918
threshold=0.0013891172093488864 0.0029836092686967015 189.7142857142847 94273.716637689344 104310.97150265946 99219.475687186015 94994.242587025728 12.142523158200889 93960.981710274267 99629.211541482771 98023.375644851258 95937.279634375838 601.82499999999982 106706.00554641343 78.4403821812259 926.00586942664825 108297.21892378671 -0.0017763564033959065 0.006181519039807854 96350.042115524819 244.12499999999952 498.23571428571296 0.001279682831655868 82603.778106454149 102793.57354691553 115.55000000000136 98279.337974068316 660.87137572235963
decision_type=2 2 2 2 2 2 2 2 2 2 2 2 2 2 2 2 2 2 2 2 2 2 2 2 2 2 2 2
left_child=2 4 23 8 5 6 -2 17 20 -7 11 12 -3 18 -15 16 -6 -5 -12 -13 -4 -17 -10 -1 26 -26 -25 -9
right_child=1 10 3 7 15 9 -8 27 22 -11 13 19 -14 14 -16 21 -18 -19 -20 -21 -22 -23 -24 24 25 -27 -28 -29
leaf_value=0.085544567267572341 0.0078672168517164836 0.018048819313755491 -0.0081522564295699075 0.062307425714820897 0.041096298243247939 0.11080757562669914 -0.017219086553145652 -0.074159620933101633 0.044444379728998361 0.026672552913511671 0.00086098656905410408 0.17750111985539196 0.04812543010141563 0.15392845693692303 -0.024620551484457166 -0.028286828891009988 -0.052715173238315975 -0.013379554624614 0.049407408422838361 0.049378273234498969 0.043405772266324805 0.038196325626853406 0.19364047076888857 -0.043706741741343522 0.035663762422384004 -0.03577902526020349 -0.074282732933839107 -0.038743316337427981
leaf_weight=2.9709628224372855 902.20970612764359 339.20955105125904 70.557097882032394 16.632364317774773 52.31220144033432 15.964242473244665 321.0843523144722 25.939200147986412 4.8072469681501371 274.81218247115612 256.11771364510059 10.963547915220262 247.89144232869148 9.226890102028845 5.1352107822895041 248.46435116231441 19.909712508320808 192.79789482057095 43.121925592422485 6.6198093295097342 38.057786166667938 14.038542360067366 5.0270344614982605 375.00267863273621 15.73834916949272 134.0063561797142 47.225379437208176 109.22158117592335
leaf_count=13 3913 1267 335 74 239 67 1421 141 23 1177 1002 41 849 38 22 1173 110 975 145 25 163 60 20 2262 81 783 285 557
internal_value=-1.72735e-05 0.0105694 -0.0282394 -0.0117369 0.00285388 0.00704591 0.00128268 -0.0223409 0.0191122 0.0312917 0.026103 0.0336128 0.0307481 0.0116227 0.0900877 -0.016108 0.0152349 -0.00736871 0.00785677 0.129265 0.00991326 -0.0247313 0.12071 -0.0415299 -0.04219 -0.0282703 -0.0471266 -0.0455402
internal_weight=3805.07 2767.08 1037.98 463.04 1848.8 1514.07 1223.29 344.591 118.449 290.776 918.286 604.684 587.101 313.602 14.3621 334.725 72.2219 209.43 299.24 17.5834 108.615 262.503 9.83428 574.944 571.973 149.745 422.228 135.161
internal_count=17261 11549 5712 2288 8160 6578 5334 1747 541 1244 3389 2182 2116 1207 60 1582 349 1049 1147 66 498 1233 43 3424 3411 864 2547 698
is_linear=0
shrinkage=0.1


Tree=18
num_leaves=28
num_cat=0
split_feature=7 1 5 2 7 3 3 9 2 2 8 2 5 9 9 4 4 3 3 9 1 9 9 8 7 5 8
split_gain=84.8397 14.5052 15.0331 24.5951 21.8338 12.6137 11.0069 10.8348 13.2691 16.7977 9.90179 9.56999 9.79562 8.77209 8.60253 14.474 8.6775 7.9925 18.3939 9.37356 7.63244 6.62464 5.51838 4.86711 4.71487 1.92126 0.189529
threshold=1209.2882007457958 0.0010860409078473144 105950.18791360442 108900.51773338171 569.3937855630794 83881.690091613244 78769.335569551229 407.03571428571331 104310.97150265946 106756.02059631921 65.296085397428286 102642.87300720609 104627.63671986543 522.79642857142619 517.02499999999839 69.606173295958413 63.114509030325365 108640.26550656858 108297.21892378671 224.59285714285735 0.0045185255694646124 157.80714285714413 498.23571428571296 5.7261447683326923 1449.0600174753783 110169.25671736564 -104.11922006508512
decision_type=2 2 2 2 2 2 2 2 2 2 2 2 2 2 2 2 2 2 2 2 2 2 2 2 2 2 2
left_child=1 2 5 4 -4 21 -3 17 14 22 -7 13 -13 -8 15 -9 -16 18 19 -2 -11 -1 -10 26 -25 -5 -19
right_child=7 6 3 25 -6 10 11 8 9 20 -12 12 -14 -15 16 -17 -18 23 -20 -21 -22 -23 -24 24 -26 -27 -28
leaf_value=0.13410641896713602 -0.039001792568086273 0.135657088383248 0.21874423270566787 -0.077425496686680556 0.025898121420829617 -0.039760880709329899 -0.0062299419260891994 -0.0030637215177086135 0.089443083790526012 0.022709491453875102 0.11633856464912765 -0.053100842828615602 -0.014414046242599435 0.097810204718397492 0.030879957793881831 0.05627465110394067 0.0007542101603508815 -0.056319492884586576 0.18938413881142838 0.0094935414641925814 -0.069172687265959543 0.0015457044707620174 0.041063753167813223 0.068128245390752726 -0.060581616223784052 0.0028879190205087033 -0.080009377140698112
leaf_weight=6.0957707911729804 42.293342366814613 5.186666712164878 8.4344096779823321 15.739787086844446 19.316740304231644 439.38645625114441 971.04697112739086 311.78138171136379 66.389067262411118 47.34893424808979 4.1015341579914084 90.491651177406311 236.50639617443085 8.1722314059734327 451.54243150353432 47.349987760186195 121.29812517762184 4.3657059520483044 5.5532184243202201 691.88979226350784 11.174261376261709 9.8805470466613752 36.561487808823586 6.0638386458158475 5.3633916676044464 3.6738037168979636 14.914095312356951
leaf_count=31 218 17 47 89 108 2776 4840 1231 251 183 22 480 1212 32 1632 186 469 22 26 3019 43 51 129 29 27 19 72
internal_value=8.74024e-05 -0.0152825 -0.0296534 0.0241111 0.0845099 -0.0351724 -0.00973066 0.0150792 0.0214791 0.0479441 -0.0383172 -0.010308 -0.02512 -0.00536166 0.0168937 0.0047598 0.0245009 0.00599618 0.00807133 0.00669992 0.00516576 0.0521243 0.0722618 -0.0439947 0.00771803 -0.0622271 -0.0746451
internal_weight=3681.92 1818.03 506.629 47.1647 27.7511 459.464 1311.4 1863.89 1093.45 161.474 443.488 1306.22 326.998 979.219 931.972 359.131 572.841 770.443 739.736 734.183 58.5232 15.9763 102.951 30.707 11.4272 19.4136 19.2798
internal_count=17261 9724 3143 263 155 2880 6581 7537 4124 606 2798 6564 1692 4872 3518 1417 2101 3413 3263 3237 226 82 380 150 56 108 94
is_linear=0
shrinkage=0.1


Tree=19
num_leaves=28
num_cat=0
split_feature=9 9 9 10 10 2 0 6 1 10 0 2 1 6 7 8 7 8 1 8 8 5 7 10 7 0 10
split_gain=199.502 65.4444 27.108 15.5218 18.4613 12.6827 12.6766 12.0097 9.59944 7.7156 7.35366 6.67871 6.32387 6.27775 5.62998 5.38116 7.03492 4.70494 4.39765 4.01829 3.61364 3.60212 3.58968 3.5606 2.82776 2.49536 2.25978
threshold=343.24642857142891 193.60714285714081 649.97500000000184 -159595.4013000064 353980.39574998448 81649.836860527837 -0.0052956788090571796 102457.53398676692 0.0014559651605586075 676494.69269997405 0.0013165185185505248 107852.55243741842 0.0010167012219701611 108170.37508947549 386.25067337589286 107.736036866059 2581.4515719961205 158.62935044882178 0.0015368639123875931 -22.128334663291053 6.1833220588527196 103498.26125965672 638.77777864356187 -42931.708250003292 3313.6297692794619 -0.00069924951351096876 607600.54789997358
decision_type=2 2 2 2 2 2 2 2 2 2 2 2 2 2 2 2 2 2 2 2 2 2 2 2 2 2 2
left_child=1 8 5 12 7 24 21 -5 14 -8 -6 15 -3 -14 19 16 -4 -17 23 -1 -16 -7 -20 -10 26 -26 -2
right_child=2 3 11 4 10 6 9 -9 18 -11 -12 -13 13 -15 20 17 -18 -19 22 -21 -22 -23 -24 -25 25 -27 -28
leaf_value=0.0046991419610694467 -0.048498673188478773 -0.092910968974027341 -0.080793473855628462 0.0083442635779949949 -0.10914548740677832 -0.069259698664749611 -0.011106610710516426 0.027605370962777893 -0.077068864903165224 -0.030296577421710526 -0.012754841054242599 0.034449681372567632 -0.011515598603373317 0.04078736003614794 0.03954374341261916 0.0068727880142119852 -0.045892494329577697 -0.040904244840541948 0.045514913847398829 0.05582958146563019 0.025842393394947386 -0.014861290197793914 -0.0053701912994684395 -0.0027184401242807276 -0.0596613715077009 0.014916734324032592 -0.085129435539281054
leaf_weight=16.624627530574799 77.056494623422623 9.11811915040016 77.330977469682693 1212.31238758564 8.1899247467517835 55.040060371160507 1400.81882122159 441.65153211355209 10.177733093500139 246.36649149656296 235.5071465075016 10.085435777902601 446.7647068798542 24.190942466259003 467.89220124483109 27.535613000392914 228.13760423660278 81.971971482038498 26.348446071147919 203.71314238011837 327.04239001870155 15.629239112138746 29.257954359054565 17.543729305267334 7.3645903468132046 11.480463624000548 21.551525205373764
leaf_count=60 208 27 208 3657 23 148 3853 1407 31 671 675 27 1279 74 1660 74 614 220 85 803 1156 43 92 57 20 31 58
internal_value=-7.33296e-05 0.014964 -0.0232 0.00563764 0.00970145 -0.0179298 -0.0157561 0.0134875 0.0351494 -0.0139768 -0.0159942 -0.0459556 -0.010426 -0.00882902 0.0378274 -0.0479097 -0.0547279 -0.0288907 0.00252075 0.0519718 0.0339069 -0.0572289 0.0187411 -0.0300157 -0.0497215 -0.0142282 -0.0565046
internal_weight=5736.7 3476.33 2260.37 2377.73 1897.66 1835.31 1717.85 1653.96 1098.6 1647.19 243.697 425.062 480.074 470.956 1015.27 414.976 305.469 109.508 83.3279 220.338 794.935 70.6693 55.6064 27.7215 117.453 18.8451 98.608
internal_count=17261 11086 6175 7142 5762 5032 4715 5064 3944 4524 698 1143 1380 1353 3679 1116 822 294 265 863 2816 191 177 88 317 51 266
is_linear=0
shrinkage=0.1


Tree=20
num_leaves=31
num_cat=0
split_feature=9 1 9 5 8 2 5 7 4 2 5 8 8 6 8 2 9 1 9 8 1 3 2 7 10 4 2 7 4 7
split_gain=92.244 27.6822 14.2789 14.2753 13.6179 11.5841 10.4453 10.3828 15.381 10.6792 9.60171 8.06705 15.0821 7.29292 5.91609 10.849 8.46293 7.74601 5.86364 8.55323 6.892 5.16361 5.26566 4.53194 8.92172 4.79395 3.65742 2.23317 4.28424 3.1037
threshold=220.88928571428656 0.0026343798657687848 165.44642857142912 83345.012699783125 189.7782687934745 108792.10814754821 83876.966598799001 905.87137644884945 39.400082409088576 80196.531108096227 82379.053524947274 85.864142537667405 251.11452315758723 79368.19189945572 8.7615528909944427 105258.41907070663 144.57857142857239 0.0014559651605586075 601.82499999999982 205.68744442656694 0.0027384475391333675 104355.77544504921 103760.35564042952 830.08128923730703 115573.46729999426 49.580772538085405 106064.90028518198 288.41536678391282 58.821511721713541 486.49029025722126
decision_type=2 2 2 2 2 2 2 2 2 2 2 2 2 2 2 2 2 2 2 2 2 2 2 2 2 2 2 2 2 2
left_child=2 3 14 7 5 -5 23 8 -2 -9 18 13 -13 -12 27 17 -17 -16 20 -20 -3 22 -8 25 -25 -4 -23 28 -1 -29
right_child=1 10 6 4 -6 -7 21 9 -10 -11 11 12 -14 -15 15 16 -18 -19 19 -21 -22 26 -24 24 -26 -27 -28 29 -30 -31
leaf_value=-0.038522802645381285 0.14560276240592282 0.1230335817964297 0.0036143126250475035 -0.00048118377476235696 0.15811962262350718 -0.042535623764759951 -0.019085854798422078 -0.024902640943155793 -0.04228013869976964 0.073925899753468222 -0.052242074385989878 -0.0076413887504379182 0.063991279929827782 0.02361517815116489 -0.037401748958732876 0.17198331053349034 -0.026190672878519922 0.10940990934780126 0.088530379743343893 -0.013821167803874976 0.015047121428314736 -0.058878834779780058 0.037377895373068494 -0.057783652654165497 0.10183508262485726 0.081265490122253717 -0.017874716197361539 -0.066371872315306404 0.084383163645707804 -0.042693425856262956
leaf_weight=29.959724918007851 5.2042700946331051 6.6041200160980216 13.775522738695143 1500.0234936773777 5.3084527701139441 68.490025252103806 387.16187596321106 13.295248314738272 26.771438434720039 61.562402665615082 12.877681970596312 219.07856957614422 33.947121620178223 800.52957771718502 110.0591893196106 4.8083807528018934 3.9049065113067627 3.7151367664337149 46.92387393116951 9.8846355080604535 56.253380253911018 56.068021684885025 17.252299055457115 12.892657294869425 4.8074430227279654 18.802310436964035 35.542844131588936 112.67234833538532 3.1326948702335349 108.82298773527145
leaf_count=201 21 24 58 6660 20 386 2078 53 113 227 44 845 121 3004 715 27 22 19 145 32 194 331 90 60 19 80 208 751 21 692
internal_value=2.60837e-05 0.00888002 -0.0274622 0.000624841 -0.00177637 -0.00231751 -0.0171309 0.0359984 -0.0117009 0.0563733 0.0205773 0.0175634 0.00196919 0.0224142 -0.0424301 -0.0243718 0.0831706 -0.0326078 0.0474366 0.0707213 0.0263927 -0.0215332 -0.0166771 0.0263008 -0.0144303 0.0484307 -0.0429702 -0.0511183 -0.0268879 -0.0547384
internal_weight=3790.13 2866.75 923.378 1680.66 1573.82 1568.51 546.303 106.833 31.9757 74.8577 1186.1 1066.43 253.026 813.407 377.075 122.488 8.71329 113.774 119.666 56.8085 62.8575 496.025 404.414 50.2779 17.7001 32.5778 91.6109 254.588 33.0924 221.495
internal_count=17261 11889 5372 7480 7066 7046 2924 414 134 280 4409 4014 966 3048 2448 783 49 734 395 177 218 2707 2168 217 79 138 539 1665 222 1443
is_linear=0
shrinkage=0.1


Tree=21
num_leaves=24
num_cat=0
split_feature=7 1 2 2 6 2 3 9 3 2 5 8 2 9 6 10 8 2 2 2 7 2 9
split_gain=68.0087 12.0335 12.9354 18.436 10.7947 8.85504 8.81981 8.70809 8.73201 13.4037 23.0814 11.2901 7.12262 6.97374 6.20925 4.15838 3.85084 3.64533 2.59003 1.89902 1.45261 0.837865 0.000416168
threshold=1209.2882007457958 0.00095890375799383392 105759.61452018733 108900.51773338171 107495.6348624399 78706.097250303501 83881.690091613244 224.59285714285735 108640.26550656858 105306.95916267396 106904.22328915058 -111.37983627899214 111005.29649388934 522.79642857142619 96175.640035548495 50548.82885000918 5.7261447683326923 105258.41907070663 83330.63428823599 86107.519271290294 1355.4225350920026 98940.029421726023 189.7142857142847
decision_type=2 2 2 2 2 2 2 2 2 2 2 2 2 2 2 2 2 2 2 2 2 2 2
left_child=1 2 6 4 -4 -3 18 17 9 11 -11 -9 16 14 -7 -8 -10 19 -1 20 -2 -21 -5
right_child=7 5 3 22 -6 13 15 8 12 10 -12 -13 -14 -15 -16 -17 -18 -19 -20 21 -22 -23 -24
leaf_value=0.014049634659259775 0.040321082914306458 0.11665530273082499 0.04458884180390156 -0.075689843695733616 0.21863747447983642 -0.0051163796708162583 -0.043760416830124042 0.031276372416737572 -0.067114557219013868 0.10085589855947626 0.017780398168956591 0.0091591513704320678 0.075542325754675232 0.076805657032963839 -0.018434156463926085 -0.010784900515658873 -0.010613858598006577 0.042397927381202058 0.12088747052970235 -0.071465545499069416 -0.040409571575589311 -0.036305672496641614 -0.077078883798014058
leaf_weight=5.2658942639827711 4.1364427506923658 5.5115419477224341 10.604735538363459 5.3107966780662519 5.3668141216039649 806.2535780146718 264.55129697918892 278.20219944417477 23.413033753633499 48.520910561084747 107.62878146767616 1354.6012576371431 6.2380200624465934 9.1241188049316388 618.76158232241869 44.70425745844841 24.882916182279587 5.7676791697740546 3.9872212409973145 15.560361295938494 4.832861989736557 12.007994309067724 3.632090836763382
leaf_count=26 20 17 58 34 27 4094 1799 991 116 189 415 5466 26 34 3303 291 110 30 20 86 22 66 21
internal_value=0.000134334 -0.0138673 -0.0306872 0.0387048 0.103073 -0.00985497 -0.0361152 0.0133733 0.0144027 0.0156044 0.0435947 0.0129276 -0.0250161 -0.0103412 -0.0108991 -0.0389937 -0.0380044 -0.0314844 0.0600867 -0.0431472 -0.0031784 -0.0561509 -0.076254
internal_weight=3668.87 1783.07 343.423 24.9144 15.9715 1439.65 318.509 1885.79 1843.49 1788.95 156.15 1632.8 54.534 1434.14 1425.02 309.256 48.2959 42.3053 9.25312 36.5377 8.9693 27.5684 8.94289
internal_count=17261 9724 2276 140 85 7448 2136 7537 7313 7061 604 6457 252 7431 7397 2090 226 224 46 194 42 152 55
is_linear=0
shrinkage=0.1


Tree=22
num_leaves=30
num_cat=0
split_feature=9 9 9 4 10 10 6 5 3 1 9 3 7 2 2 6 6 5 2 2 9 5 6 10 1 3 8 8 4
split_gain=158.254 52.8993 23.6047 13.549 11.617 14.2428 12.0462 11.1335 10.2498 9.82261 9.35672 7.99883 7.91527 6.98581 6.51511 6.39688 5.50427 5.34741 5.03093 4.76627 6.96844 6.32504 4.75761 4.45935 3.93326 3.55854 2.83838 2.80732 2.70678
threshold=339.16428571428389 202.08214285714402 468.22857142857026 29.457096068737751 550388.19849998946 -275886.3830000122 101506.26736937092 82283.63052623425 107826.56058083504 0.0010773227915088889 675.14642857142883 83881.690091613244 2138.0076296401098 107469.24111453429 107852.55243741842 82537.161545710231 83142.991521464588 107669.16360259723 105010.0136325365 93217.964335767043 160.85357142856915 95095.695057920893 108170.37508947549 -642422.66934999253 0.0019277369839503867 87528.026604276223 205.68744442656694 -75.734758913108962 56.113127540013252
decision_type=2 2 2 2 2 2 2 2 2 2 2 2 2 2 2 2 2 2 2 2 2 2 2 2 2 2 2 2 2
left_child=1 9 3 23 5 22 -7 26 13 11 12 16 -9 -5 -12 -6 -1 -17 -13 20 -11 -21 -3 25 -10 -2 28 -25 -4
right_child=2 4 7 8 15 6 -8 10 24 19 14 18 -14 -15 -16 17 -18 -19 -20 21 -22 -23 -24 27 -26 -27 -28 -29 -30
leaf_value=0.012097713656038832 -0.0054381568356314663 -0.017422758736361947 -0.056360969539608598 -0.0076060639823565162 0.039904433799075205 0.0042722664388755672 0.022457731960276232 -0.033411399871478703 -0.0034388879867214093 0.043136025329309997 -0.043439064058720091 0.043450804981397015 -0.012022549576900779 -0.076112615369962347 0.043009915122601654 -0.037843364737863698 -0.098912096469998045 0.029066625031174888 0.018410890009577758 0.055784882903196692 -0.0010432853110780781 0.020353389834914498 0.037754431455131889 -0.01480578837965971 0.058433457825474433 -0.079819140190328278 -0.015522954625268363 -0.055726694690202395 -0.093789343208390136
leaf_weight=14.014338135719301 7.7969504892826071 273.33018463850021 65.100523740053177 970.67030492424965 14.278196960687636 1227.9744490683079 517.86592492461205 294.84397199749947 15.02043768763542 45.443141371011734 325.73959928750992 584.646574229002 418.73804053664207 15.11694687604904 8.9574243426322919 112.33441290259361 6.5561527013778678 13.365445852279661 93.002418160438538 64.421884804964066 166.5617761015892 231.19960053265095 16.574366420507431 55.131699591875076 32.517599195241928 36.742363899946213 11.866759240627287 24.090552985668182 27.477267324924469
leaf_count=44 21 772 180 2665 39 3660 1650 797 47 161 879 2287 1128 43 24 319 20 39 338 226 535 809 51 150 105 99 32 66 75
internal_value=-0.000128223 0.0136533 -0.0203045 -0.0102145 0.00434203 0.00625811 0.00966659 -0.0304326 -0.00646951 0.0304538 -0.0273305 0.0381494 -0.0208602 -0.0086566 -0.0411254 -0.0235241 -0.0232829 -0.0307289 0.0400143 0.0198688 0.00842653 0.0280746 -0.0142682 -0.0414822 0.0388839 -0.0667982 -0.0615677 -0.0272494 -0.0674698
internal_weight=5691.38 3381.57 2309.81 1157.09 2175.72 2035.74 1745.84 1152.72 1033.33 1205.85 1048.28 698.219 713.582 985.787 334.697 139.978 20.5705 125.7 677.649 507.626 212.005 295.621 289.905 123.762 47.538 44.5393 104.445 79.2223 92.5778
internal_count=17261 10950 6311 3196 6530 6133 5310 3115 2860 4420 2828 2689 1925 2708 903 397 64 358 2625 1731 696 1035 823 336 152 120 287 216 255
is_linear=0
shrinkage=0.1


Tree=23
num_leaves=29
num_cat=0
split_feature=1 10 5 9 10 5 2 8 5 2 3 4 8 1 9 6 7 0 8 5 5 3 9 4 5 9 2 4
split_gain=75.1777 21.9801 20.7892 17.4718 16.9395 12.4194 12.2626 11.3263 10.5344 9.2264 8.50206 7.85649 7.67572 8.16187 7.42399 12.342 9.41393 7.07769 6.36751 5.81377 4.087 4.34385 6.68138 4.27664 3.92021 3.89703 3.8377 2.62567
threshold=0.0013891172093488864 -387886.82190000667 104627.63671986543 189.7142857142847 2633251.7324999846 100112.54679101791 94273.716637689344 12.142523158200889 85504.855727084927 85496.994711425868 102040.82996408631 19.1670093778508 -95.513126648101519 0.0051319093341523686 512.36428571428519 107753.42954060489 926.00586942664825 -0.0017763564033959065 -85.739239574179464 105820.65728100132 83345.012699783125 103065.74092503068 115.55000000000136 56.265771275669941 98279.337974068316 248.09285714285582 99219.475687186015 75.707683757282965
decision_type=2 2 2 2 2 2 2 2 2 2 2 2 2 2 2 2 2 2 2 2 2 2 2 2 2 2 2 2
left_child=3 11 4 20 5 -3 8 17 25 -10 -6 19 13 -13 16 -16 -4 -8 -14 26 23 24 -23 -1 -22 -5 -2 -9
right_child=1 2 14 6 10 -7 7 27 9 -11 -12 12 18 -15 15 -17 -18 -19 -20 -21 21 22 -24 -25 -26 -27 -28 -29
leaf_value=0.078931644917721033 0.067360895217711797 0.0024723793002627264 0.011508903962935803 -0.031019671866854798 0.041848057821736666 0.025923294609427897 0.056580224413611352 -0.036979101644236526 0.16069903808150354 0.032445821663881894 0.16620904839477849 -0.018167075551981826 0.091108432431194486 0.040058343034782673 -1.4578082865306095e-05 0.1511418309102357 -0.03139172674268443 -0.010468866877568615 0.026006983853476759 -0.012829718961608226 -0.039890609875949369 0.039660529936522387 -0.030530064134037097 -0.035845439708938227 -0.072516301180051368 0.032111077196051462 0.15569938463035504 -0.078159782219141188
leaf_weight=6.2013086527585966 34.144361883401871 1463.1099790930748 63.334922268986702 39.735117420554161 88.719034567475319 267.04802623391151 17.198661938309669 109.80444243550301 6.1826593279838553 60.467166185379028 5.8605225086212149 80.480773627758026 15.603888735175131 34.350416332483292 64.182466998696327 5.8981324583291999 265.86231775581837 186.09734889864922 404.34617514908314 8.102198049426077 326.40947316586971 15.259974017739294 121.84577478468418 6.8127371370792389 41.512964427471161 12.969628423452376 5.7452912181615821 18.024457797408104
leaf_count=28 121 6082 313 182 311 1102 74 601 28 277 21 302 59 113 234 23 1263 975 1553 31 2213 81 783 34 285 54 21 97
internal_value=6.27539e-05 0.00835205 0.00382213 -0.0239597 0.00834472 0.006092 -0.00955655 -0.0194621 0.0179243 0.044343 0.049554 0.0256394 0.0221612 -0.000749618 -0.0168465 0.0127071 -0.023138 -0.00479657 0.0284259 0.0643981 -0.0364845 -0.0379103 -0.0227178 0.0188469 -0.0435718 -0.0154844 0.0800843 -0.0427858
internal_weight=3775.31 2806.79 2224.02 968.522 1824.74 1730.16 450.479 331.125 119.355 66.6498 94.5796 582.773 534.781 114.831 399.278 70.0806 329.197 203.296 419.95 47.9919 518.042 505.028 137.106 13.014 367.922 52.7047 39.8897 127.829
internal_count=17261 11549 9349 5712 7516 7184 2288 1747 541 305 332 2200 2027 415 1833 257 1576 1049 1612 173 3424 3362 864 62 2498 236 142 698
is_linear=0
shrinkage=0.1


Tree=24
num_leaves=25
num_cat=0
split_feature=7 6 6 2 10 7 5 9 3 2 5 8 2 8 5 7 1 8 5 5 10 2 4 8
split_gain=54.0171 10.164 17.9458 16.6707 8.97949 8.90568 7.42901 7.25445 6.99616 10.9658 18.4287 9.28227 6.64212 6.26547 8.69067 6.2652 5.30331 4.39038 3.50988 5.72077 3.43723 3.05539 2.09762 1.4194
threshold=1209.2882007457958 95855.813409042821 95814.541942828873 96248.011223169218 64978.849699996594 465.92040199003537 105820.65728100132 224.59285714285735 108640.26550656858 105306.95916267396 106904.22328915058 -101.22610292205351 78706.097250303501 -0.98906863635103537 111216.57608615501 972.29932063129684 0.00097956572000661504 8.2081909917357923 96646.736543931562 97166.797726990175 328687.61160001048 105389.75309772884 49.075271756363975 27.734514763205841
decision_type=2 2 2 2 2 2 2 2 2 2 2 2 2 2 2 2 2 2 2 2 2 2 2 2
left_child=1 2 5 -4 6 17 16 20 9 11 -11 -9 -7 22 -15 -8 -3 -1 -6 -20 21 23 -10 -2
right_child=7 4 3 -5 18 12 15 8 13 10 -12 -13 -14 14 -16 -17 -18 -19 19 -21 -22 -23 -24 -25
leaf_value=-0.021367663094564393 -0.029375844594029751 -0.0476812248297733 -0.0025134334556721062 0.28432414043802851 0.085546244373553265 0.10433601135744917 0.010297751841596543 0.026633809649102658 -0.078434729255454055 0.088137294171884539 0.015509772258100183 0.0076821476592435246 -0.0037998309485824098 -0.021570706801116418 0.10832980206544662 -0.037368238379156225 -0.025241676016870843 -0.067929026881977092 -0.06103693477536342 -0.0010435102951837924 0.052384684866452695 0.040871760905329735 -0.0074877679430369742 -0.071226111249071383
leaf_weight=69.290805950760841 16.24298258125782 155.74583224952221 3.9953596442937833 4.1110847890377045 4.3128166496753684 5.72104288637638 84.806109607219696 320.75826580822468 17.864860922098163 51.362295344471931 109.25327380001545 1330.2124365568161 796.68895769119263 23.123774737119678 6.6261040270328513 40.861419498920441 325.31005394458771 28.614063143730164 17.171377554535866 213.75134351104498 4.5352119058370581 4.1503247916698447 5.4352195262908927 16.173915907740593
leaf_count=506 87 1103 23 20 26 17 464 1128 95 189 415 5329 4091 106 25 212 1822 204 93 1143 23 21 26 93
internal_value=0.000177592 -0.0125054 -0.00516923 0.142953 -0.0204206 -0.00650293 -0.026851 0.0118266 0.0127427 0.0137909 0.0387349 0.0113642 -0.00302884 -0.0230521 0.00736166 -0.00520108 -0.0325067 -0.0349759 -0.00383528 -0.00550461 -0.0297294 -0.0399135 -0.0618849 -0.0502564
internal_weight=3656.12 1750.38 908.421 8.10644 841.959 900.315 606.723 1905.74 1864.64 1811.59 160.616 1650.97 802.41 53.05 29.7499 125.668 481.056 97.9049 235.236 230.923 41.1024 36.5672 23.3001 32.4169
internal_count=17261 9724 4861 43 4863 4818 3601 7537 7313 7061 604 6457 4108 252 131 676 2925 710 1262 1236 224 201 121 180
is_linear=0
shrinkage=0.1


Tree=25
num_leaves=31
num_cat=0
split_feature=9 9 9 10 10 7 10 10 3 0 10 0 7 5 9 2 8 7 9 1 1 10 5 2 3 4 2 5 0 7
split_gain=127.103 43.9967 19.4 10.0103 9.82648 9.44025 9.24371 11.0106 6.52909 6.49567 6.41314 6.36018 6.35612 6.22713 5.45329 4.99047 4.87398 6.53911 4.78423 4.75149 5.97787 4.54286 4.50332 4.3192 4.27399 4.26852 3.9306 3.03795 2.64962 2.31717
threshold=343.24642857142891 211.69285714285903 649.97500000000184 -642422.66934999253 635269.59975000983 425.41077874205081 -159595.4013000064 290039.86735000915 82719.49259324935 -0.0016812848515004306 -165564.88860001217 0.001137758393670141 744.67373074826912 94774.969430960322 245.32857142857185 108792.10814754821 107.736036866059 2581.4515719961205 1263.1678571428563 0.0011709699098072992 0.0012937428891913463 72405.78749998851 108040.22414112803 104611.47834106554 103065.74092503068 45.117965721171821 79658.624491715629 106204.89841120226 0.0050434306799672654 4718.6791751198625
decision_type=2 2 2 2 2 2 2 2 2 2 2 2 2 2 2 2 2 2 2 2 2 2 2 2 2 2 2 2 2 2
left_child=1 5 3 23 13 19 12 9 -7 -8 -10 -9 14 -5 -3 -14 17 28 -19 24 -21 29 -6 25 -1 -2 -23 -25 -4 -18
right_child=2 6 16 4 22 8 7 11 10 -11 -12 -13 15 -15 -16 -17 21 18 -20 20 -22 26 -24 27 -26 -27 -28 -29 -30 -31
leaf_value=0.053059685976030571 -0.0457141328611049 -0.0061338583588413818 -0.061924989889553229 -0.017098321589927967 -0.030880273696267998 -0.03919344850939159 0.057028199242255564 -0.092364575242557478 -0.0015732497429691461 0.0091984162237519883 0.025544452662091752 -0.0088144017577964848 -0.0071953825366070359 -0.0021202207691185821 -0.064499537954418235 0.05075200519414641 -0.053516300346818341 -0.040343498902343566 0.011921247204512807 -0.041645754823991854 0.073230649603825249 -0.064738521796908435 0.022223681697361566 0.039911438663151597 0.023309170985586963 -0.019221115074804923 0.0094221842565007166 -0.018402708962547736 -0.11392637242437037 -0.004960318163164756
leaf_weight=203.33790847659111 160.33675098419189 28.69536229968071 64.721534729003906 413.72293266654015 265.57747545838356 17.1905737221241 29.017909198999405 9.4322764277458173 96.40854911506176 1320.6427675187588 914.01166580617428 267.64045917987823 363.90836262702942 843.45478874444962 36.206991285085678 15.494659364223478 39.433236509561539 213.21796026825905 19.081782579421997 13.794081330299379 6.7447924315929404 8.3159821629524213 16.990710139274597 12.535476565361021 63.327570244669914 97.978651523590088 50.831939041614532 31.092703253030777 11.546427249908445 13.090860247611998
leaf_count=885 432 83 177 1120 718 50 89 27 323 4046 3320 762 1030 2328 104 49 106 582 52 50 25 23 48 34 243 265 136 87 32 35
internal_value=-0.000171218 0.0120903 -0.0185254 -0.0141015 -0.0108367 0.026397 0.00300764 0.00649914 0.0219173 0.0102268 0.022957 -0.0116587 -0.00977576 -0.00704934 -0.0386942 -0.00482884 -0.0379128 -0.0443916 -0.0360503 0.0424249 -0.00392132 -0.020011 -0.0276872 -0.0307501 0.0459946 -0.0356654 -0.00100454 -0.00164758 -0.0697976 -0.0414144
internal_weight=5647.78 3385.85 2261.93 1841.69 1539.75 1314.82 2071.04 1626.73 1027.61 1349.66 1010.42 277.073 444.305 1257.18 64.9024 379.403 420.24 308.568 232.3 287.204 20.5389 111.672 282.568 301.944 266.665 258.315 59.1479 43.6282 76.268 52.5241
internal_count=17261 11086 6175 5032 4214 4896 6190 4924 3693 4135 3643 789 1266 3448 187 1079 1143 843 634 1203 75 300 766 818 1128 697 159 121 209 141
is_linear=0
shrinkage=0.1


Tree=26
num_leaves=23
num_cat=0
split_feature=9 10 5 10 3 7 10 9 6 6 7 4 8 2 1 2 7 0 9 2 3 7
split_gain=61.0296 18.9571 19.6827 14.6334 11.7013 10.7372 9.83473 7.10405 9.26957 6.64349 6.50508 5.49703 7.41713 5.57597 5.28088 11.4446 4.52159 4.20569 7.08826 4.08922 2.30135 1.14826
threshold=220.88928571428656 -373427.56359999214 104627.63671986543 580969.34909998009 82519.939199073429 569.3937855630794 -39458.659700001801 512.36428571428519 107753.42954060489 76281.117848973023 965.40507989446644 29.457096068737751 -92.909803568606137 94158.592400199923 0.0013802800825614486 105457.86530181435 2093.0907317039532 0.0016640435584022175 141.61428571428408 95873.751169719719 103065.74092503068 3245.4089789492141
decision_type=2 2 2 2 2 2 2 2 2 2 2 2 2 2 2 2 2 2 2 2 2 2
left_child=4 9 3 6 -1 17 -3 10 -9 21 -4 13 -13 -11 19 -16 -5 20 -19 -7 -6 -2
right_child=1 2 7 16 5 14 -8 8 -10 11 -12 12 -14 -15 15 -17 -18 18 -20 -21 -22 -23
leaf_value=0.084776274575239868 0.10736951660217242 0.013741879476706138 0.0011880784902010032 0.036984798919177164 -0.045527372700155666 -0.0095828683997585418 -0.0030693466639185886 0.0015395928508112927 0.12722490884797508 0.05742304262194553 -0.029188856116325042 -0.016290916567028583 0.020721198407338021 0.018806695653907905 -0.0042546596788324981 0.16569152522204239 0.014341834775077068 0.14726175080794535 -0.021060992932889582 -0.031373277728044199 -0.026776682523248326 0.05383320882927
leaf_weight=9.9065492302179319 9.7184580117464083 550.03138293325901 94.285382971167564 177.66355249285698 241.98277361690998 151.32583121955395 947.3402793109417 65.163998022675514 6.4487082064151755 72.739294975996017 279.40081153810024 63.28416720032692 374.86690811812878 76.946738019585609 149.38609953224659 4.0705674439668647 175.11904047429562 3.1278809085488311 12.499106198549269 199.86781998723745 89.726432330906391 6.8161312043666831
leaf_count=38 28 2279 484 672 1726 905 3983 237 23 247 1375 232 1417 288 739 20 604 20 74 1272 578 20
internal_value=8.44573e-05 0.00702859 0.00287983 0.00742269 -0.023279 -0.0245354 0.00310594 -0.0159951 0.0128575 0.0227859 -0.0215244 0.0210275 0.0153754 0.0375721 -0.015222 0.000253306 0.025745 -0.038067 0.0126303 -0.021984 -0.0404554 0.0853
internal_weight=3761.72 2899.82 2295.45 1850.15 861.893 851.987 1497.37 445.299 71.6127 604.372 373.686 587.837 438.151 149.686 504.65 153.457 352.783 347.336 15.627 351.194 331.709 16.5346
internal_count=17261 11889 9657 7538 5372 5334 6262 2119 260 2232 1859 2184 1649 535 2936 759 1276 2398 94 2177 2304 48
is_linear=0
shrinkage=0.1


Tree=27
num_leaves=24
num_cat=0
split_feature=7 6 6 2 10 7 3 9 3 4 8 4 9 4 5 8 0 3 3 10 2 2 8
split_gain=43.1046 9.17586 14.2153 10.9239 7.9272 7.45 6.89137 6.04964 5.88401 5.86062 6.39752 6.77526 5.69489 5.53444 5.41726 4.37131 3.41782 7.05542 5.07657 3.04741 3.6191 2.23654 1.39105
threshold=1209.2882007457958 95855.813409042821 95814.541942828873 96248.011223169218 64978.849699996594 465.92040199003537 96929.126129275726 224.59285714285735 97048.116093959921 10.786913930647836 -101.22610292205351 34.371182435409658 353.42142857142767 70.197676688793521 96384.460848980932 8.2081909917357923 0.0010976636826688371 109194.34186064611 96353.540378560472 328687.61160001048 105510.72347477775 95463.171870742604 26.404778399311482
decision_type=2 2 2 2 2 2 2 2 2 2 2 2 2 2 2 2 2 2 2 2 2 2 2
left_child=1 2 5 -4 6 15 14 19 -8 21 11 -11 -7 -12 -3 -1 17 -6 -18 20 22 -9 -2
right_child=7 4 3 -5 16 12 8 9 -10 10 13 -13 -14 -15 -16 -17 18 -19 -20 -21 -22 -23 -24
leaf_value=-0.018634511393133192 -0.028256143079021731 0.072911852840671476 -0.0016718963890136958 0.2218366645005766 0.0029398185189504185 -0.0050908283506442015 0.032289273219423681 -0.010619848905926132 -0.022840103033027338 0.013960412199006908 0.0060559049989696769 0.043232739813910986 0.024303410021588097 0.021316818710096504 -0.056502065033153338 -0.066680458136364903 0.10220065851768495 0.09852872537901311 -0.013341957875018665 0.047918772468647175 0.055964583375878132 -0.085764172725654897 -0.070217664849962849
leaf_weight=66.354740865528584 16.010616913437847 3.3677085787057868 3.9563876092433912 4.8887214511632919 54.495340697467327 723.97802603244781 20.166386283934116 7.7119423300027838 484.20881276577711 230.19782976806164 1220.8117717802525 120.43930825591087 72.513090491294861 295.07365174591541 81.821970917284489 26.498640701174736 3.8915877416729918 8.9963319599628431 166.37772282958031 4.6692867577075949 3.6688304543495169 8.1430040299892408 15.595791354775427
leaf_count=506 88 22 23 20 308 3828 123 28 2923 811 4850 411 280 1181 533 204 22 47 885 23 18 32 95
internal_value=0.000218144 -0.011275 -0.00428515 0.121862 -0.0189005 -0.00553977 -0.0250791 0.0105107 -0.0206359 0.0113279 0.0118422 0.0240151 -0.00241476 0.00902651 -0.0513861 -0.0323459 -0.0033174 0.0164841 -0.0107012 -0.0279995 -0.0380486 -0.0492135 -0.0489615
internal_weight=3643.84 1721.52 898.19 8.84511 823.326 889.344 589.565 1922.32 504.375 1882.38 1866.52 350.637 796.491 1515.89 85.1897 92.8534 233.761 63.4917 170.269 39.9445 35.2752 15.8549 31.6064
internal_count=17261 9724 4861 43 4863 4818 3601 7537 3046 7313 7253 1222 4108 6031 555 710 1262 355 907 224 201 60 183
is_linear=0
shrinkage=0.1


Tree=28
num_leaves=28
num_cat=0
split_feature=9 9 9 6 1 0 5 10 4 1 5 8 6 2 8 7 7 1 8 1 6 8 1 8 6 10 2
split_gain=102.116 35.1828 16.803 10.2524 9.56764 9.04969 8.66551 8.37735 9.09469 6.66856 6.63308 5.83505 5.07532 4.98511 4.64424 5.79089 4.60667 4.17928 4.07344 3.91363 3.71765 3.70547 3.57359 3.38933 3.36824 2.88604 2.27815
threshold=343.24642857142891 193.60714285714081 661.6464285714294 102457.53398676692 0.0020345044577159388 -0.0049304056901868778 82067.725699871968 290039.86735000915 20.349224485406754 0.0014559651605586075 103934.77964384279 -22.814845188873317 106706.00554641343 107852.55243741842 115.58329845877806 2581.4515719961205 386.25067337589286 0.0050050390143496224 158.62935044882178 0.0015368639123875931 101607.98262076218 -22.814845188873317 0.0027384475391333675 6.1833220588527196 83816.996199583329 -42931.708250003292 83545.467782695792
decision_type=2 2 2 2 2 2 2 2 2 2 2 2 2 2 2 2 2 2 2 2 2 2 2 2 2 2 2
left_child=1 9 5 7 10 17 22 8 -3 16 -5 -8 -6 14 15 -4 21 26 -16 25 -9 -1 -7 -18 -21 -11 -2
right_child=2 3 13 4 12 6 11 20 -10 19 -12 -13 -14 -15 18 -17 23 -19 -20 24 -22 -23 -24 -25 -26 -27 -28
leaf_value=-0.0068982003511267546 -0.065754048517762412 -0.044686687182307186 -0.06905384323533037 0.065113121449209901 -0.024938593582634117 -0.07630850410822429 -0.016714004764795749 -0.015294291924216205 0.0041856289448169359 -0.073428516660408616 0.017793850588492196 -0.004664935998552589 0.032214441314108042 0.036780159982451287 0.019438279633418071 -0.035670155604667887 0.031163864609143995 -0.092316491247348809 -0.029373703012820454 -0.021575335710103297 -0.082739749236274931 0.046818123177643799 -0.029931731152963981 0.01729564220314948 0.031956063707777614 -0.006425029344996328 -0.025292428560168868
leaf_weight=13.851294815540312 17.576001703739166 39.088618397712708 68.642411708831787 31.542305946350098 77.762755811214447 22.127375394105911 665.36731350421906 213.77074226737022 1471.2028453052044 10.297261953353884 487.01371665298939 1015.0830239951611 19.417389869689941 9.3254989385604841 21.862474322319031 213.81236267089844 425.27264356613159 14.223126739263533 78.426120817661285 17.29687562584877 8.4975194334983808 176.2313422113657 66.696497559547424 300.92607082426548 36.679015874862671 17.110160827636719 66.813114285469055
leaf_count=54 48 109 191 104 233 60 1808 604 4430 31 1577 2780 60 25 59 589 1660 39 211 53 25 809 185 1156 124 57 180
internal_value=-0.000216132 0.010876 -0.0166384 0.00419219 0.0152759 -0.012688 -0.0110447 0.000253159 0.00292074 0.0266081 0.0206721 -0.00943571 -0.0135189 -0.0354592 -0.0372193 -0.0437831 0.0290447 -0.0421711 -0.0187329 -0.000824676 -0.0178728 0.0429038 -0.0414849 0.0254171 0.0148016 -0.031599 -0.0337195
internal_weight=5605.92 3345.96 2259.96 2348.3 615.736 1867.89 1769.27 1732.56 1510.29 997.665 518.556 1680.45 97.1801 392.069 382.743 282.455 916.281 98.6122 100.289 81.3833 222.268 190.083 88.8239 726.199 53.9759 27.4074 84.3891
internal_count=17261 11086 6175 7142 1974 5100 4833 5168 4539 3944 1681 4588 293 1075 1050 780 3679 267 270 265 629 863 245 2816 177 88 228
is_linear=0
shrinkage=0.1


Tree=29
num_leaves=31
num_cat=0
split_feature=1 5 1 4 8 7 6 6 8 10 1 8 6 4 7 5 10 6 9 8 3 9 7 4 9 7 0 8 2 5
split_gain=50.2172 19.349 18.4936 10.9647 10.87 10.138 10.0243 9.02272 8.10252 8.0132 9.05932 8.67778 8.83095 8.65998 5.54645 5.07562 3.67353 3.96846 3.92222 10.1724 3.90205 2.97521 2.96902 2.92643 4.18008 4.01932 2.86695 2.18924 1.16833 1.71112
threshold=0.0011202026223700358 83345.012699783125 0.0027384475391333675 29.457096068737751 189.7782687934745 1823.6681265317022 84764.209053380444 101719.18133137959 251.11452315758723 15780.774349998226 0.0050050390143496224 71.109587815753343 81813.664028988467 54.159069996868332 2253.1614803355628 79985.341397814234 -27849.565000001061 102793.57354691553 142.98571428571555 8.7615528909944427 94260.604318435348 160.85357142856915 619.55944990320143 33.355205392099847 176.78571428571379 1090.9132974687966 -0.00064149153568471274 -65.025388438367045 105258.41907070663 105211.91366770137
decision_type=2 2 2 2 2 2 2 2 2 2 2 2 2 2 2 2 2 2 2 2 2 2 2 2 2 2 2 2 2 2
left_child=16 9 3 6 -5 7 -3 -4 -7 10 13 12 -11 -2 -13 -12 23 20 19 -19 21 -18 -20 28 26 -26 -25 -22 29 -1
right_child=1 2 5 4 -6 8 -8 -9 -10 11 15 14 -14 -15 -16 -17 17 18 22 -21 27 -23 -24 24 25 -27 -28 -29 -30 -31
leaf_value=-0.038892741877180365 0.011773309681014914 -0.030063277799688561 0.036826629749114582 -0.0063061173130517442 0.12994269186687651 0.0038245121794851589 0.03055391095412387 -0.0041193946277054867 0.053260494178020104 0.043452980105425684 0.049284793947898295 -0.056567202377807602 -0.031309758345447768 0.065190614561029384 0.012134407967650588 0.13768393344085056 -0.038738892447506501 -0.032017149647657693 -0.05246375598763045 0.084259615618680658 0.021119562498979477 -0.00072989619980969077 -0.014202200127968008 -0.037755146004460755 0.026910941014549068 -0.038377149315043428 0.014566655257249204 -0.053305949011251103 -0.076980687101503201 0.03402100807570177
leaf_weight=31.45251627266407 73.260418578982353 33.229181289672852 250.89320912957191 1751.81874781847 5.8751178383827201 636.27255627512932 152.41164287924767 68.512098744511604 34.976345419883728 81.331338763237 11.677019476890566 24.106244161725044 19.608363077044487 51.814985185861588 22.927944019436836 14.636686056852339 57.355722084641457 20.698610812425613 35.735215805470943 11.820397228002546 4.0592207908630362 32.131246782839298 46.896130293607712 46.572298504412174 42.12650129199028 12.148743882775305 13.510705910623072 150.03362374007702 6.7095984667539588 3.5854669213294974
leaf_count=198 261 139 917 8288 20 2267 662 269 117 275 33 87 87 185 74 44 458 137 248 74 24 181 297 349 244 64 101 1100 40 21
internal_value=0.000111184 0.00472993 0.00225892 -0.00340958 -0.0058507 0.0133786 0.0197036 0.0280438 0.00640044 0.0289476 0.0451228 0.0123991 0.0289297 0.0339025 -0.023077 0.0984558 -0.0288961 -0.0344684 -0.0191711 0.0102485 -0.0417001 -0.0250914 -0.030749 -0.0160911 -0.00781849 0.0122971 -0.0259897 -0.0513454 -0.038752 -0.0314314
internal_weight=3748.19 3233.35 2933.99 1943.33 1757.69 990.654 185.641 319.405 671.249 299.363 151.389 147.974 100.94 125.075 47.0342 26.3137 514.836 358.73 115.15 32.519 243.58 89.487 82.6313 156.106 114.358 54.2752 60.083 154.093 41.7476 35.038
internal_count=17261 13725 12679 9109 8308 3570 801 1186 2384 1046 523 523 362 446 161 77 3536 2519 756 211 1763 639 545 1017 758 308 450 1124 259 219
is_linear=0
shrinkage=0.1


Tree=30
num_leaves=27
num_cat=0
split_feature=9 7 0 2 5 9 5 8 9 6 2 8 1 8 1 10 0 1 6 2 5 4 5 2 7 7
split_gain=34.5197 9.97579 8.60194 7.22978 10.7995 8.84032 8.76808 12.1985 6.40534 6.31575 17.5633 10.7621 10.6066 6.30016 7.06136 6.13611 5.77598 5.63796 6.31351 4.8366 8.03805 8.41121 6.85412 4.80626 2.34055 2.02282
threshold=250.66428571428438 1290.1096535569088 0.0026299842162740288 101207.09480044551 99006.86592972638 360.24285714285628 104627.63671986543 -22.814845188873317 512.36428571428519 107334.08861211321 108900.51773338171 22.147416696111808 0.0010245700948296507 59.485200837123358 0.0017161235655937673 150291.77699999194 0.0029899873673286952 0.0018556394350314729 95894.300200823549 76867.635831054606 80381.891047422789 67.791122973770925 83247.443478710353 84043.042946225338 2368.1436276302707 805.53249249566591
decision_type=2 2 2 2 2 2 2 2 2 2 2 2 2 2 2 2 2 2 2 2 2 2 2 2 2 2
left_child=2 3 9 4 8 -6 15 -8 -2 17 12 -12 -11 14 25 -5 -16 23 -19 24 21 -21 -22 -1 -3 -4
right_child=1 19 13 6 5 -7 7 -9 -10 10 11 -13 -14 -15 16 -17 -18 18 -20 20 22 -23 -24 -25 -26 -27
leaf_value=-0.00070709253993472246 -0.0012726836310531927 -0.088879869598348676 -0.058144951589830476 -0.05811480621350678 0.023059346228062837 0.1336340459973718 -0.036835283350891604 0.017448933554463 0.065648468100754129 0.14555349216363642 -0.064204109307635648 0.083936252295717093 0.013401472651275252 0.12042785436180765 0.16654574063974165 -0.0031510986910254207 0.023805464909543654 0.023584093719564787 -0.050429108045134577 0.034803302539217616 -0.01532247895798119 0.15378171269743648 0.012122715656593071 -0.022015207409086412 -0.010858433343706914 0.018997590120057087
leaf_weight=120.71727053076029 469.29370287060738 6.6856001317501059 10.290996462106706 63.372957199811935 21.352961793541908 10.931953832507132 65.701644003391266 111.90076377987862 14.752204507589338 12.388017892837526 23.77559053897858 6.1783505082130423 11.914590463042257 6.8448058664798728 4.0394691228866568 29.892061680555344 9.5063216388225538 59.554347693920135 14.290975287556646 41.681172996759415 96.710220098495483 6.9297204315662375 1539.872324898839 859.88834725320339 9.0492715835571271 5.0756254494190207
leaf_count=651 2169 24 59 341 105 44 337 558 52 60 143 34 63 30 19 147 44 285 77 141 366 24 5847 5582 33 26
internal_value=0.000256947 0.0068683 -0.0141165 -0.00243932 0.00450189 0.0605009 -0.0156707 -0.00263279 0.000766864 -0.0156734 0.0175995 -0.0336484 0.0807647 0.0341587 0.0137351 -0.0404986 0.0663718 -0.0173855 0.00926063 0.0111759 0.0116912 0.0517643 0.0105009 -0.0193921 -0.044009 -0.0326646
internal_weight=3632.59 2488.13 1144.46 787.198 516.331 32.2849 270.867 177.602 484.046 1108.71 54.2565 29.9539 24.3026 35.7572 28.9124 93.265 13.5458 1054.45 73.8453 1700.93 1685.19 48.6109 1636.58 980.606 15.7349 15.3666
internal_count=17261 10188 7073 3753 2370 149 1383 895 2221 6895 300 177 123 178 148 488 63 6595 362 6435 6378 165 6213 6233 57 85
is_linear=0
shrinkage=0.1


Tree=31
num_leaves=31
num_cat=0
split_feature=9 9 9 10 6 8 8 7 9 6 7 8 4 10 10 3 5 1 8 9 1 3 9 10 3 10 7 10 6 0
split_gain=80.9096 28.9962 14.5215 8.14163 7.76975 11.1007 7.87952 8.48318 7.61365 9.34016 9.46396 7.69865 7.58301 7.53695 6.58539 6.36223 5.52481 4.82759 4.62593 5.9497 4.86008 4.59598 4.57593 4.34066 4.21802 5.87816 3.64947 3.63927 3.36908 2.80618
threshold=343.24642857142891 214.85714285714445 661.6464285714294 -642422.66934999253 101506.26736937092 -27.406618772827937 16.920613171074503 1132.4278274598039 151.03214285714321 92756.185160017179 479.70638893001893 71.109587815753343 52.539484439565783 635269.59975000983 -1260115.0291500001 102993.76460708176 80381.891047422789 0.0057201678321029585 115.58329845877806 1263.1678571428563 0.0038428395248304068 105486.92788566755 594.19642857142765 790521.87160001532 78769.335569551229 339372.85140000383 3313.6297692794619 -3326233.0787999234 103186.64259567713 0.00039240723851730058
